0.3282665713902518
0.4808156633112726
-0.34490568831282464
0.6864036932145988
0.4038150403028176
0.8475396687096575
,
-0.9647143833841781
0.039984874671021735
0.46275686449929904
0.7384854385691355
-0.23588421073303498
-0.43536277441163995
,
0.9423366213556658
0.6877553145152153
0.9901716641530502
-0.5433702714544768
0.5608701285602702
0.6198924573613129
,
0.8236358341334558
0.39325197198077644
-0.2930574374176392
-0.6206939712315156
-0.6162157292942336
0.7027198039674925
,
0.19562194701362426
-0.6825913187925077
0.4803629284981113
0.3645815087258632
0.22292865170583304
-0.894063993987213
,
-0.15220188332064138
-0.3437740769857059
0.6536261404430007
-0.9585854217139184
-0.30999938541995103
-0.9290442053175305
,
-0.3321233715662702
0.11663336734700551
-0.29784189546376044
-0.9536450931976636
-0.7841807234226775
-0.6527333392527264
,
-0.29153926070095715
0.8891114901661626
0.7485952131003314
0.9730064618901102
0.5905300981784004
0.300046533421346
,
-0.75751258220594
0.4895741851168827
0.2652285065975425
0.003323652456228698
-0.3290621481013729
-0.24858047363184532
,
0.15065370577239223
-0.020562072569419235
0.7640468675211252
0.7921151386326277
0.7458342898495744
-0.872978815660945
,
-0.8528169699969887
-0.531798844042283
0.780983123538149
0.23688367711641206
0.7665059525560933
-0.44152819507623065
,
0.6873935230323893
-0.3622057689627485
-0.1151740750009382
-0.5136660345747923
0.08406430362949291
-0.8840160808426274
,
0.870430458425032
-0.4527943477846051
0.43361223019617817
-0.8379977830552989
0.5044550475691454
-0.8406366107442151
,
0.048588798634952066
-0.8726738662404738
0.5966878188570693
-0.5224121528572498
-0.7583078359728053
-0.6604434290942578
,
0.3298686310222622
0.4677154855443509
0.5469894601725369
0.9470943068390486
0.9223486751626205
-0.410152200914349
,
0.6853484842994921
0.8161040529517143
-0.0026303302903624686
0.9122192060286293
-0.7856642008839925
-0.35721875210465304
,
-0.7005418372616459
-0.1642845017596476
-0.34760392311724886
-0.8271764405378297
-0.671905007219167
0.4165654215481551
,
0.28052128216825045
-0.6924262348378317
-0.13216104871099588
0.5553831294007622
-0.22003039388769224
-0.1524230769012085
,
0.41027568570225464
0.4958944616636038
-0.5734855884648726
0.4715081733501695
-0.9783374879123372
0.31180906452985124
,
0.623310567917606
0.7720552784340057
0.3355730161026865
0.4589159027510897
0.23507953616986277
-0.8203289382869559
,
-0.9515230811116953
-0.22063678768336614
0.40426264958007546
-0.2506504540555115
0.5346476305836674
-0.11887074171060896
,
0.3030407817950937
-0.8542197680080627
-0.9754439237501931
-0.744335463123478
0.6349858629631827
0.3112556406042353
,
0.1582165351744847
-0.8581598525106168
-0.4082966633834338
0.8049653054073077
0.6678306187206708
-0.23699430560627377
,
-0.5419355401928364
0.1017605875974973
-0.5508662250358455
0.23724317191017943
0.07947948408354692
-0.2885544763025176
,
-0.6609201406263482
0.2850417905682748
-0.9931670671935323
0.48996683381303074
-0.45101706693226995
0.6623894060223123
,
*
0.29104276502919574
-0.8750025386109361
0.8898345054702969
0.10731478593509178
0.6180877082821801
0.48217019675612993
-0.3146390273257082
-0.38175234410885006
0.7689797506067277
0.1825662295774595
-0.4427353925346515
-0.19046499482682339
0.21075297574858212
0.62630263180989
-0.809655394378647
0.2701090559322347
-0.9326565135081192
-0.46264827066695574
0.5783793558977633
0.8794681597030154
0.6557642327280391
0.9774609414624283
0.27805714068277726
0.3568378294144102
-0.6725886857738896
0.8432678987322764
,
-0.24273322043386406
0.4887398166112616
0.4497249729193211
-0.17752297417770996
0.05622368865270717
-0.11950126912268674
0.0025031224698164566
0.9748246651588602
0.6495221324055506
0.4183008910177919
0.5165020237009531
0.23758239136214154
0.6879095254829835
-0.8609484822418292
-0.17581901248188864
0.359540996957675
0.563048174337447
-0.3552585783569341
-0.5245881580295182
0.16820762862587327
-0.8388269850155889
0.8767371934501704
0.5600210899216267
-0.6941044541522756
-0.9158690392275839
0.6027556933457061
,
0.15267016248506932
0.10925253475011006
0.6212457553214141
0.7806024601840081
-0.3707357731452157
0.7143144768690156
-0.6750168104993687
-0.3789179797093496
0.7003484498818366
-0.9429024771011162
-0.3132054464722556
-0.8889872708711472
0.1675343143595212
0.04865167877551525
0.5534082084557792
0.5508363995062654
0.12147952172477124
-0.14942455834515941
0.7238878123272391
0.7016072701229251
0.5952861228288165
-0.04320864703646725
-0.5435310696085438
-0.9170013641638227
0.5235001938545903
-0.4622606590310163
,
0.49752749750309794
-0.9011816025507436
0.26540415678621215
-0.5866784025743027
-0.31871958320198035
-0.22918029043446062
0.9290123201828475
0.8978200487797582
-0.8385070384013333
-0.9064430458714355
0.2589030708722094
-0.2181539592936094
-0.1198722042846074
0.2641685324520261
-0.05170237503029055
-0.2453362632448634
0.031570241899074855
0.4062750762662945
0.8964673272497695
0.662907818545523
0.9443609811642315
-0.24385397097188416
-0.8510031418386481
-0.7863867382539743
-0.9230704910262302
-0.221043068645288
,
0.045504819287545566
0.9243519752610067
-0.3813592019798704
-0.8388582239051063
-0.5609282304188172
0.45212677652854916
-0.4173482725306884
-0.762759908961231
0.7792382782545746
0.7893181690573964
0.2011334369097539
-0.9770507599112215
-0.7216468219930088
0.20431819053315484
-0.06258055360734142
0.7716066931056961
-0.5237739226238725
-0.63104527348882
0.51577102900546
-0.33160329910627184
0.046086061894568396
-0.4438316792742708
0.9607976629595494
0.2106974631627706
-0.09251321867293551
0.5156046067705389
,
0.8539581041519443
0.6010031105790345
0.3736093385255789
-0.7928397171010886
-0.2389345997832127
-0.4731152314333527
-0.6013489968947381
0.39047330435125177
-0.9104170342281631
0.6635774200804394
-0.21876906917536112
0.8114552683679417
-0.4714727414796842
-0.6575987310249568
-0.3583278264431246
0.6164792222299839
-0.3547895461801551
0.9569706899925593
0.42090269679520026
0.5419273358285289
-0.7717615611779207
-0.10598123080076374
-0.7966896282106785
-0.5916480715330885
0.52307535349711
-0.9653457337847855
,
0.2553040542587353
-0.49433433218586637
-0.36193796906777465
-0.7906621489000686
-0.6758392267268067
-0.44278494952240266
-0.9158386309722838
-0.6222839317924342
-0.5138815904168208
0.14389505952747852
0.6716084881786377
-0.24458930263907475
-0.9334367114532873
0.6600408499491323
-0.22003850361678812
-0.3453481087408739
0.5692115598478276
0.25414770786179625
-0.5659908159860162
-0.6802277854156129
0.3876035304126996
-0.540486916277981
-0.4866611929626722
0.7848657806375287
0.6091331460578321
0.7577153936062553
,
0.9537295749480612
0.37058793732017037
0.1954908886286993
0.7018457138261402
0.8570556449753346
-0.7016576779575119
-0.52562837564504
-0.14252669874930354
0.04427373738442397
0.6735456437222579
0.9804752468021021
-0.6253445193451505
-0.20853599647780405
-0.9908526140242226
-0.543299854991059
0.7065325829130672
-0.7755475545014843
0.4033256629260254
0.07128616177663404
-0.2812057449709003
-0.8265527483205332
-0.48943070487252577
0.77139597646915
0.23024292229330706
0.16017381797977107
-0.48091622554206803
,
0.09673355014454481
0.8918529369100827
-0.3673846125772688
-0.5046302617134955
-0.25692326324997095
-0.771664909244726
0.5616849211407813
-0.3413751637854408
-0.28238165934729065
-0.3323169351300707
0.08451181291504448
-0.5884140868411681
0.9846078351689482
0.3967712239351357
0.9895165674595493
-0.6936991028317818
0.2121967699619386
-0.9421054159074842
0.5586649743530852
0.463457004130654
-0.6048631198605533
-0.6118179781505954
0.49932209930971555
-0.4986577024347358
-0.03626432546362356
0.2306671540383438
,
0.5353089223920993
-0.5434632744828317
0.2873362069907647
0.5629160296692204
0.5973560416601572
-0.16817150793425212
-0.5632143185916161
-0.3804481366722901
0.49137696442454365
-0.49002314218499393
0.48456935887889907
-0.44998060555122993
-0.5749654045106548
0.9823859736239942
-0.28247440152580694
-0.40583082789332214
0.8420433906062822
-0.8703649690741316
-0.3184234828050337
-0.7481988654089136
0.6322749747030785
0.5866117477989282
0.16157723802270324
-0.4138907183630124
0.9821685825133973
0.6559610838508032
,
-0.08542631688563844
0.43214717309486733
-0.11862613786177353
-0.35028474033122325
-0.7468562675022201
-0.9556494123483764
-0.3877222930634452
-0.40379236406374003
-0.56018250225059
0.5134937187867314
0.42927335178206577
-0.711657023940908
-0.778454534545029
0.1118718126556217
0.06521477584672011
0.841118911763948
-0.13821583071830715
0.7220165896807337
-0.2704403440297479
0.060040624068536455
-0.5019850344472216
0.39098597731191403
0.7923520869841804
0.28773397666259115
-0.1920157506878625
0.20562670688277707
,
-0.4998752693320433
0.6200589716060536
0.570256508580838
0.7004752184312014
-0.2498915462555512
0.8590470575775239
0.9862914501668425
0.2687639656439663
0.2067667555388511
0.986204504107128
0.3321075498700167
-0.8036867122688702
-0.15569260388542028
0.4439105415865392
0.9552876320901685
0.3428299685249503
-0.598149139815367
0.15307595884820713
-0.5464258160484712
-0.2711604846795829
-0.8527332488772099
-0.2513965845101712
-0.6135629792175498
-0.15938422387833648
-0.1315356760313323
0.31719072415348903
,
0.8941842513535735
0.843233885404807
0.07304903194637409
0.5901517268836838
-0.8050861867501024
0.5141333520254985
5.183702978815197E-4
0.4771868052391187
-0.9113388829162047
0.285657501101702
0.22191123930472925
-0.38553898933485226
0.31365795733325985
0.4572954941262397
-0.5979216429643165
0.6563390037961581
0.8945863483514281
0.40691021759311136
0.06363497818066778
0.9655433197299703
0.453056728099536
-0.6212821104703006
-0.9043659124009458
0.516340967568091
0.870011153170045
0.3429085319783751
,
-0.817980586039
-0.09511627034950007
-0.3402051819382023
-0.7106610272994236
0.33705856281642654
0.6129270295615695
-0.05645270050097775
-0.6418483599798188
-0.7365653139554683
-0.10694260615810798
-6.920654491724145E-4
-0.7781467535516358
0.44903345803044115
-0.9541954716549991
-0.9412604866829609
0.23588011227289082
0.5081482261598544
0.1336424817976743
0.1787404930807058
-0.8728035424622865
0.6275987369715399
0.7851638622711538
-0.13443658448610138
0.08570766977088051
0.6994305652287979
-0.8988992942482101
,
-0.567059494261729
0.5823427917498551
-0.816650024650938
-0.601852986271642
0.9997602062188712
0.4724842804309167
0.5953713766453991
0.042228405140894466
-0.5105987381373108
0.4250912619739765
0.12295759751962096
-0.5463103684478019
-0.9397749010432488
-0.7727864658651884
-0.1751814581857306
0.9821823196973511
-0.06344866849281709
-0.03333616535800215
-0.42972612735622834
0.37095425969604107
-0.17054078127178232
0.8475923779453315
0.049038090380495274
0.21365485761747546
0.813859317216576
0.911746134042229
,
0.9209634494094397
0.9466488834817841
-0.18002324917486845
0.8345099477062123
0.49208700499157515
0.8046278358149936
0.7603714577086765
-0.39196589637773716
0.20339409925760057
0.3322341218011447
0.7062620185282391
-0.10029420643557553
-0.38889411426836734
0.12149651510739996
-0.5030588079497343
-0.22916544833516772
-0.4016775251288081
-0.27650032686372383
-0.2882851568331974
0.3617374040809053
-0.9306310849435
0.8629935038375781
0.013273848371912401
0.3106835202270498
-0.46200774098751374
-0.4925014306795308
,
-0.4586806816119339
-0.3228372144914591
0.7022270680117291
0.6406524612324431
0.2592990375169209
-0.6056581187594736
0.3392453342517627
-0.8641317851055381
-0.08830994248646641
0.45046713630258606
-0.31421250188762506
-0.4205528888429032
0.6527195296273822
0.36871902995205474
0.8329299931477141
-0.5237022649432517
-0.7603893656297711
0.8129295358039633
-0.393073784913342
-0.01713158410913189
0.23028689024713744
-0.29849614457607854
-0.08324762879149429
-0.10146500253248385
-0.4086810112151989
-0.43646830550931814
,
-0.3945464221924615
0.5406712348269213
0.7771962702090508
-0.46065104326727796
-0.5299491137596684
0.8598708902967861
0.43990185830148343
0.9404768048419869
0.30814216614900375
0.09845209724165883
0.7226624537828715
0.03921340666673352
-0.4002423269561506
-0.7587615393710366
-0.7102895427735164
0.42082341775383186
-0.2573785935997836
0.5000094432934267
-0.8407413771845083
-0.8974275586796746
-0.35378696618390804
0.19714531412218847
-0.2194552113906037
-0.5829652060368951
0.9205876328115297
0.5069254629508706
,
0.7747513465635392
-0.3636054057558561
0.8989886134194922
-0.23120454747598165
0.29292532267769017
-0.7362750971413151
-0.7017598513501047
-0.6993379912388733
-0.9625104981672226
0.9822938929879774
-0.5382747296381116
-0.9712642016609891
0.6585532118245374
-0.6289442992547036
0.7872026036228145
0.5808388595835635
-0.5543576524102913
-0.357481743108705
0.226677840407466
-0.9916892221655089
-0.9682994898572201
0.9337553281504192
-0.4575781081107811
0.7608972138542209
-0.8370611370334614
0.9381270074168537
,
-0.6161527221842674
0.16592158214144298
-0.5029667353903472
0.06904864997195645
-0.8086480678316533
-0.7251588011414681
-0.13308694331805662
-0.27158034908624956
-0.5719665680738643
0.6568701992171184
-0.5207280214468747
0.7788110215953554
-0.2789978075365128
-0.5022085395385434
-0.8875429239571797
0.8303725852879238
-0.9038138902271076
0.15951187044610615
0.5298278080784457
0.6045304528558769
0.7081111367985684
-0.7050165882085994
0.05899634725245738
0.2625400773280025
-0.8095238272819754
0.5190604756872439
,
0.5586973512447301
0.37310632198346366
0.0948243935482497
0.6984195872156348
-0.14783836933345923
0.9566372062719803
-0.2725455667994299
0.9611633233042518
0.08554505369615441
-0.0960523015501996
0.18782643158788861
0.7229598372084219
-0.49847011742602837
-0.9465725105135284
0.34618340732905456
0.14354722708949574
-0.4360180092517435
0.06316818357891797
-0.887402887023836
-0.1660070666217619
0.5608057046520843
-0.5539696354340483
0.46278823187652285
-0.2136080548280083
-0.6208606968080193
0.056674890429525115
,
0.3704369237272879
-0.9294630288456065
0.4508818960315656
-0.33803868432166095
0.05103224653346351
-0.8416558652673644
0.5698213734734822
-0.6727690771556003
-0.2689676271790013
-0.6746175032879399
0.7122390019639029
-0.24884216938792222
0.5545174994416808
0.16149797533976343
0.8230053124858377
-0.03870406513597214
-0.8614194819306008
0.8008061333443786
-0.9580678590493168
0.29400598737262296
-0.15576448988537137
-0.7136503507194939
0.8772148693093458
-0.03739368774564505
-0.16521012832171228
-0.8546912598582783
,
0.41645321299243665
-0.8233774205590798
-0.32129331282280227
-0.8231291487557466
0.8259412737892563
0.2977877299994447
-0.6104198324007173
-0.7289304252906508
-0.8798038877281279
0.24724747720900683
0.599164081873745
-0.9187362470147316
0.44890779279167176
-0.9142688117830168
-0.17330569798788514
0.37127655864454573
0.013329353842784098
-0.4954205877288917
-0.280519708922598
-0.06589930536025727
0.11830772608433707
0.812513209043796
0.5608423153013223
0.13675969752975958
-0.15641365160513848
0.9406701445407235
,
-0.649661464639181
0.33554498826642143
-0.6509765543526179
0.9599948935757849
0.3215353593314565
0.6827492127945706
-0.06993456752755993
0.6750683977371768
0.8994531435247177
0.17957909062145863
0.576450736784068
0.9306862484213196
0.768243205559618
-0.8029063139056751
0.04535718173428292
0.5096340555914586
-0.9985348332603051
-0.8061878470374725
0.20875089694688856
0.6414446328840789
0.9920856085724686
0.8060523797387992
-0.2046928427822452
0.5430749365758049
-0.6849562469982486
0.14318149285025483
,
-0.4437966643103359
0.6865729751958344
0.5902236961741795
-0.3169254964397102
0.3477601295911616
0.9693368959534397
-0.0730795080067886
0.9632380438165579
0.6760244628512329
0.43687937265003296
-0.4630056261064793
0.8976470387974909
-0.19776370254923317
-0.29374278816968324
0.8432697720477561
0.5686666729657439
0.7284761665837837
0.9689987084216575
-0.5136345198829815
-8.191909338041107E-6
0.03929787809842142
0.9600042567550716
0.4448181426131934
-0.3875360091058939
0.8997020985868153
0.19587594461344415
,
*
-0.21506023750637843
-0.11808633654636419
-0.6477954232253272
0.40296603693851707
0.43697825078537395
-0.06393894187112098
0.44668331332198974
0.09703439231175016
-0.17885138007280177
0.8919585732232974
-0.29421914565733687
-0.9570543287168297
-0.8307425800819787
0.9760403722710542
0.9946910542901801
0.41410820447899394
-0.06786779456457177
0.7235843849052386
-0.07817176943245432
0.4716268635082742
-0.19712052649845496
-0.11161820369211961
0.5755595093919975
-0.291014721611321
-0.42990618023789756
-0.9148429251178327
,
0.6178849591512879
0.5793266107663924
0.2690322882280251
0.6419615027267176
-0.4609920632586803
-0.8415102737445669
-0.087951444070521
0.6581075478424637
-0.7775320359116137
-0.6034744261752218
0.45713133840320497
-0.15753182251160316
0.8800382083541892
0.9719066579507596
0.6130782868709224
0.3507698182949187
-0.1160258852648931
-0.8153396372041067
0.5811101011256533
-0.45642685379511494
0.05953707636628158
-0.18616245592815447
0.8975622753862537
-0.643462544452275
-0.404758424294407
-0.5889993923377526
,
-0.8305783128472614
-0.19678151234548877
-0.11291957801142703
0.11421284496110043
-0.3163232928595669
-0.9769652867956679
0.35284230430269903
-0.25968174081940093
-0.3769308288063587
0.24331478190792508
0.5371216257099607
0.6495003443569115
-0.06349262877060666
0.04106736459395424
-0.32792469749034364
0.6758346816767206
0.7874979160298401
0.3699086566344515
-0.7319686649764234
0.2770931129622126
0.9452929476101695
0.9611263478057428
0.2781191614199346
-0.017037363962212733
-0.5161132147864393
0.9122887831463462
,
0.9150327549549483
-0.794087324289859
0.7196713721748719
0.5443219558501924
0.2931022394535135
-0.47232105187021783
-0.5555214722983829
0.938502849744636
0.7268983632355445
0.6863621470333823
-0.7992245495727659
0.9567776786619303
-0.26023427989873027
-0.3369039453828055
-0.4021344773792388
0.005029212135875711
-0.3835059548173775
0.5017958562961685
-0.5181548823346732
-0.6854957537944035
-0.31780494916182184
0.7971602642326618
-0.8506780634526628
-0.900985907473209
0.39647291646952787
0.14487701702684141
,
0.7345461893592212
-0.4133395987759072
0.8232759201138738
0.27327867934347855
-0.598607262470585
0.6298217835560894
0.06924634504403296
0.061506050786672775
-0.9645671848013541
-0.634443038867218
0.8801197297389018
-0.8020785032258592
0.7601351040008933
0.228642073446653
-0.2578158234222194
-0.15519857378237234
0.7881267745448618
0.5103460784041399
0.5567272687634853
0.3472208416548098
-0.12740898698386732
-0.38606815788740384
0.23850937853375972
0.7626871218120401
-0.06285211299756054
-0.8270964483624148
,
0.43532153349086977
0.7854829627272488
0.34012069461714334
0.2795685376677886
-0.026365388754437096
0.5008214179422258
0.6677143622067664
-0.7864598900707235
-0.3943473906953792
-0.6710884279186349
0.9538103278072854
0.26474951256119506
0.1676343936885018
0.5045932079244049
-0.21259508429165397
-0.4859632015589231
-0.6469549583574724
-0.5134059636039593
-0.10363038765876499
0.7626229457670992
0.9642659358773014
0.8029683188052053
-0.514848127595173
0.19652277605835708
-0.2741817072963154
-0.9877838178068226
,
-0.1433541732295681
-0.17433760361170145
0.5263859504269472
-0.3039365962480012
-0.33767630613698135
-0.74496988104293
-0.6983701974314512
-0.3010001196661819
-0.49848516127699233
0.9259604273398079
-0.3213366338510759
0.19047611948690268
-0.46842606418759586
-0.3917052633831603
0.9736991558044532
-0.44941857820152564
-0.7496473913269059
0.6275766875716021
-0.8327616495125146
-0.4356124734711154
0.6789224109455635
-0.9182693224254472
-0.9229776158695456
-0.03874125935219204
-0.20173359963976883
0.12931420450241227
,
-0.8925317285242605
0.9453651922004147
0.28374912957330073
0.32538004425202277
-0.32525748153637307
-0.9626606855032084
0.3323235534103993
-0.06437519109953437
0.6892910719348558
0.28418065686297306
-0.3070851140420807
0.17688538838200005
0.3251044879664282
0.6933529587363085
-0.11334293647344185
-0.5868967944302644
0.7106847629755494
0.6066294447741968
0.04329416790986264
0.47650500472388735
0.1495610914090239
-0.3441127848238598
-0.2180592927498273
-0.5088572809974303
0.010225224669330025
-0.07316725175121519
,
-0.8708377690304229
0.8420935511048734
-0.4783317437315659
-0.993062291511072
-0.40601710373926364
-0.736524476414537
-0.631973985132298
-0.2953329458869875
0.20867912762559593
0.4123181730474308
-0.8020608736444055
-0.5992015627233466
-0.40286923218546333
-0.2506723516889297
0.945964158381775
-0.770190144235924
-0.05460173319584228
0.06522490937577118
-0.7897944091331845
-0.4135365079539143
-0.8721363853926055
0.571971499037043
-0.16234197862456057
-0.18406362525619374
-0.8198330080261207
-0.8794545770853557
,
0.34037326798001377
0.3686292571028442
0.8135179487733838
-0.18844854480165915
0.7979569645998591
-0.813126063049293
0.7282362390396161
-0.9667037953772774
-0.5023701156984121
0.6403255122064822
-0.8880695020930531
-0.20878564606130914
-0.2773822358329676
0.9383157568510441
0.8974081356023207
-0.9136623674906043
0.8180201196515154
0.6194597423849361
0.1066834891548581
0.053562549566212404
-0.05135728336860568
0.4579909337125721
-0.07771576232452544
-0.4096240838679184
0.8078059329644831
-0.07742920122051022
,
0.004191053181825191
-0.7146463355893847
-0.05505046196794965
-0.8138825607960273
-0.9900924295314394
0.5981052268947499
0.3496827118586797
0.6085017055705982
0.2769114169369277
0.4487174514875012
-0.5354740819538097
-0.3998254746862411
0.19214644006922824
0.6412539775828727
0.892821493647604
-0.17553114132819936
-0.10138225921118478
-0.12399622577322557
-0.27237674555216035
-0.194030940535281
-0.31968448733949417
0.49830933818389006
0.6471953337368742
-0.811935668034495
-0.3829079311972387
-0.4133476826518021
,
-0.29312443658125087
-0.8819164804352992
-0.0830397647879601
-0.5002032294795249
-0.8980517329384144
0.5369963604062383
-0.2909402747190465
0.5836361213469025
-0.9155972045130861
0.5127342175739333
0.020589856175805728
0.3801452957013282
0.6884821530107662
0.1801710385781803
-0.8368072155513233
-0.6128539127555958
0.9508120475381313
0.33532364647885937
0.8180446576567172
-0.8168434563522287
0.9087370395883188
0.28301096957151844
0.7362457601375655
0.5639996351391454
-0.18248472682886388
0.1459841403511879
,
-0.8392766573321638
-0.7710099977171421
0.7483249008477324
0.5188383951386979
0.8276157023248257
0.509470880107124
-0.988565685489618
0.08582091773269597
0.7190369998887108
0.6509984450486461
-0.3042660525199088
-0.3796463150205963
-0.382336083867971
0.24030605419473772
0.02306220330828031
-0.3536711000663746
0.9507794006065338
-0.4905897145177366
0.1869587205094988
0.9632247353807
-0.5846217172962672
-0.5433014068965827
0.8783443391092131
0.22555211287126128
0.43917264279211166
0.9902880627210136
,
0.7968199994173287
0.8147454474543994
-0.3399491262000199
0.6301004652028042
-0.8958739157069487
0.3526929303407605
-0.7049160136323934
-0.30252124593362123
-0.003466077627971392
0.38081387412908235
-0.4768300191047927
0.3759001923810891
-0.6421482432554148
0.9649313904388888
-0.1807828306098895
0.5449696646144603
0.7979387194792539
-0.7167117977522913
-0.445192130239885
-0.1320136094229701
0.29199632140315307
0.6192041083785798
-0.8802746528007658
0.2582739768036808
-0.8945705684454379
0.6011547304209501
,
0.32095814989654703
0.5531049085864383
-0.27713297992801716
-0.979154129836594
-0.1199266721082719
-0.008467354066939251
-0.9051362344882196
0.10816899301942219
0.47615097829817515
-0.07663467425442379
-0.3249639972488576
-0.24689164642522113
-0.027228007924326312
0.06907719825735098
-0.5596537133296893
0.8394567416108732
-0.7830566396443958
0.6038389294978318
-0.6293331935527039
-0.41041822329962885
0.11449044383737675
0.35923348257901805
0.7093641516898502
0.6206269440595398
0.5622166047617596
0.5137558798496993
,
0.7351730962358515
0.2724408489762502
-0.7428092549870339
0.2872438217923068
0.7460204190355858
0.6911328665562423
-0.5953994499988647
0.3589386444282164
-0.5115369945888103
-0.8602144581668673
-0.08854321664985376
0.9963414455425105
-0.6369344637048243
0.055606761526727416
-0.22108490337259368
-0.787039244885577
-0.607308154903606
-0.5158084117346966
0.09656420176261746
0.6639445608632708
0.16310180962353843
0.6959508643511987
0.29309974572109093
-0.5544339830842658
-0.27310926613859515
0.025860917389297633
,
-0.8868050600625802
0.4810765126703451
-0.19108277730662585
-0.7239375838880237
0.1663880785774635
0.7551544547107213
0.558288996422846
-0.6170755215236167
0.8337420711849709
-0.6970462555622557
-0.43635734027761286
-0.5267728105934392
-0.17958017923219968
-0.4360625651821432
0.8811598540581
-0.07843557255877058
0.7054610553652872
-0.5218011102179709
0.42070342483898476
-0.4318527895863119
0.46865743056268205
0.5336581525046462
-0.806753829474241
-0.13057843100440153
-0.8376813512856685
0.8648577524674605
,
-0.355732482667884
0.42671094550254773
-0.35091554573556655
-0.5412956320961894
0.5800722963782882
-0.9259448608065798
0.6401090094624983
0.5408452028192517
-0.9598318044171493
-0.49355298904156886
0.14586174001682356
-0.7043493948454381
0.8774798281259645
0.29009614480871254
-0.10925491566641408
0.2164757356592032
-0.22243307232691834
-0.9798819775211054
0.24491998171919302
-0.41379753947139586
0.9828765937049301
0.37798166714015274
-0.20922961988308986
-0.14245519164739656
-0.9177947732781169
0.8896344764003541
,
-0.23081084439225147
0.031648714212473276
0.8851578289509329
0.29609735729837405
-0.6606022984964491
0.5257286267007731
0.6208136898090907
-0.37708706745286363
0.838443665664364
-0.5232377981260342
-0.5160240932694233
-0.7296353308952112
-0.9585876245159412
-0.05505746099921613
0.8975872811115093
0.7463346182076149
0.7990276585832824
0.06060715231372166
0.7683370326139789
-0.9767539714335216
-0.6295708435847279
0.801546535513582
0.4827716672836431
0.9262703203696426
-0.7306896208845768
0.7924316780315788
,
-0.5747815116578192
0.44526853079211665
0.5074560944400099
0.2852230541975059
-0.606333050282028
0.4114393997255757
-0.25456076913816783
-0.689730602643679
-0.5517653700343178
-0.40796516101731667
0.050484051126564046
-0.12043393293385633
0.4483807737386582
0.9297430737292767
0.7132996148062531
-0.9200877290527109
-0.1835357741309868
0.38911493087392607
-0.11005105589596133
0.9093714119641081
0.9128571038887716
0.672460318894275
-0.28827346570453977
-0.207296771222406
-0.18544807698231314
-0.07192532997683654
,
-0.053995418236260306
-0.1473458446606147
-0.7389565247671644
0.49763301148954975
0.2922742831628607
-0.7810546690695067
-0.9366166841978277
0.7362055958088988
0.9622998033654743
-0.0745100222960732
0.3689982763536517
-0.013323245787819312
0.32088159200631805
-0.7244660431612566
-0.1676281699222597
0.9026693371143752
-0.9482282612597154
-0.053031231737967144
0.9628442001826607
0.4861917653285074
0.5669225331390014
-0.43426860968014075
-0.2965495482264677
-0.5555483949417662
-0.8098566932230733
-0.007453924899765152
,
-0.35875264829391
0.7680641975836355
-0.9754086023447559
0.14788641509665662
-0.843054574837747
0.7939525590324491
-0.6482300991935283
-0.1566194495424436
0.2925200311509745
-0.5591271564705435
0.9123641796734121
-0.20785489279189837
-0.8502447909389379
0.7918285609153384
-0.5162800371861811
0.7393140106852849
0.22634725000293157
0.7449142276471243
0.7953111806378097
0.482161886584792
0.25636953214771907
-0.9320224282898879
0.013142998825939167
-0.5560074113117458
0.8413863690504577
0.864114775396861
,
-0.22365327709785704
-0.580218121098968
-0.5575457449366786
-0.8075050219185985
-0.9167805536659938
0.12880171618098463
-0.8520079028378035
0.387549302801868
-0.7991138333708735
0.2908721407095207
-0.9579413889249342
0.48063684940271
0.21303954846787745
0.08440471840505265
0.9669282505073231
-0.9469615172659291
0.8206773999507467
0.04951618949958453
-0.9919286247751238
-0.16623640668696313
0.5769070221319007
-0.23236119531275695
-0.8754687768578943
-0.593620693793839
-0.1377166147031689
-0.021100961831893805
,
0.0068041856017435325
0.4993658925885655
0.5980026836406
0.1906588110392059
0.46413274389005515
0.5079929537991531
-0.05502193196172286
0.28645671522188404
-0.5733284108985192
-0.8668645267328051
0.05212984200130009
-0.8386426785224629
-0.005614212537779764
-0.6793968454413135
-0.7060979359805284
-0.009040652337781958
0.8711312557709716
-0.9545163161179016
0.37642575697780456
0.3820404262618805
0.9949009727116873
-0.08916100350910848
0.19353353007633345
0.35997668813567274
0.20690726099647735
0.015765185666310133
,
-0.621100727488252
-0.08558661901742165
0.39911347269575753
-0.9034100522475698
0.12677872374429974
0.6545226881219816
-0.2631111368024398
-0.443247799947789
-0.9564203668326837
-0.9810765363609627
-0.7248818162631232
-0.3258510822834537
-0.4549786666497212
-0.5605144701681657
0.5686995274959945
-0.9879086136858115
-0.3732859587335706
0.8758003893550821
0.7244327242271307
0.8571178014614249
-0.28538081227445744
-0.7822375083814825
-0.2509889490350063
0.37013740747277235
-0.26025304871923954
-0.8039518655419093
,
*
__
0.01985754854464121
0.059866830361099396
0.5832691737160973
0.6423413457920482
-0.765993852125887
0.176341418000854
0.6116285926119014
-0.7718686431043595
0.29671548963200456
0.656713169138245
-0.8761695857460265
-0.9169976456380855
0.2658878263159881
-0.5794443375923873
-0.7619891380642233
0.18242774970453232
-0.3551239814801459
0.8717343397005638
-0.9409341466223518
0.7529946796935628
-0.7737229167429058
0.823258199432504
-0.4125652938849239
0.5341420449631522
-0.14795371736343588
-0.6490214216046983
