0.4966194363578923
0.9180718044560039
-0.2903568846608715
-0.16727353868422784
0.4888442352087061
-0.44622405259905373
,
0.1042046328794676
0.4664115242416722
-0.35402475104647646
0.6623026004627074
0.6795972104778856
-0.888205447947729
,
0.1528496151845589
0.36244552774740857
-0.9298501198896767
0.5099587487274235
-0.3308384651173346
0.7749504779874725
,
0.8494536555929599
-0.556104431426516
0.5595119485319184
-0.8878571992098219
0.6001177475087056
0.8347820743036274
,
-0.5641445286033285
0.8709487045927329
-0.7814558018727318
0.33852638928220646
0.7481290971271468
-0.3507974840036858
,
1.4225428419389303
0.8395400626577527
0.11196889551852673
-1.3225275559599725
0.46938953401063466
0.8457386970854119
,
-0.1845468777776202
-0.04782830227595536
-0.27914557118054373
-0.3132593861060415
0.48263154528264685
0.3132593284722247
,
0.3976773312965354
-0.18940222878480562
0.35763421517403815
0.7102858483019787
0.7766032974051507
0.2579912363901906
,
0.48469919939703104
-0.894473711151615
-0.18060355806868267
-0.03905530767377246
0.036289653155072044
-0.10141676655820753
,
-0.40435697528946024
-0.7849302449085305
0.5442249424152357
0.05889715643175934
-0.3467839313117571
-0.06984217769601408
,
*
0.8721593120956025
-0.1755070097566135
-0.5292500934229354
0.06913699488867447
-0.026181900037029613
0.21143329163464217
-0.9567382576933551
0.4101125304801703
-0.8607844734033034
-0.9739671766803696
-0.12718582368450648
,
0.27312978760611073
-0.5504539532329192
-0.7696152998757929
0.15963844261169716
0.575242091154184
1.678940809790174
0.09857463832819535
0.13106313435994418
-0.6936607152551846
0.6274504773590106
0.8696679494304587
,
-0.824796475188863
0.46741725553979546
0.6346868325818802
0.8842287394981313
0.212924788291563
1.5154569754199236
-0.3441843482215138
-0.2765160601952995
-0.408557533705703
-0.6360553444326827
-0.5446974377710068
,
0.7140305977065438
0.6062783444430074
-0.5318138895776721
-0.03960523283014203
-0.5145139447620118
0.6322710255421385
-0.9386655305955873
0.7467615939781067
-0.4076707568827891
-0.13912344568641474
0.792633774581806
,
-0.28135677725655817
0.8943771796069963
-0.5958318392400671
0.7587406997576399
0.7690930081186195
-0.2382703620971022
-0.8230511406358912
-0.807247061179439
-0.9311831973958405
0.714154828544869
0.27564989541792584
,
-0.22407759238174257
-0.8045191186019023
-0.870826791425271
-0.75422122445376
-0.6412785138295818
0.02518076210737862
-0.3010287146975973
-0.7676158597139456
0.2949768005136121
0.4190929503864665
0.4083218282455934
,
0.23593437854278998
-0.19909401789751827
0.39069455834463895
-0.5518312940134766
0.24439915249625588
0.6485941327059283
0.966807570323934
-0.1786861729334328
0.7169085908748708
0.6061546069686555
0.7062523145195772
,
-0.9604207973167331
0.7669258955405888
0.2994250500276122
0.7036220247896279
0.919504394680328
0.060739334813297054
-0.04489907961923676
-0.09272249199004
-0.9215708099100737
-0.8742838812150604
0.8357309095647154
,
-0.2243663034578449
-0.4662083028647806
-0.7308934729863076
0.3364491637495015
-0.2701280028179318
-0.8231418513650239
-0.27011289727233667
0.2679300202290749
0.07813674245590878
0.9145272717400129
0.5986938373063639
,
0.18899269731142468
0.6912085802920688
0.18757784801660612
0.534697320374707
0.5232972272983223
-0.6918984270206275
0.7720843767442278
0.2318125428210943
0.4634085476980331
-0.008740646281215472
-0.46505940432166737
,
*
-0.46906894809645683
0.14892337702039668
-0.697102383557969
0.11552432007144092
-0.8281523576988218
-0.09401139075158291
0.054142969557508976
-0.9647503544876039
-0.08168270793916249
0.31639131553368627
-0.9506784933476955
,
-0.39741251133803895
0.5464388442744279
1.2762512003400386
-0.16112027894563272
-0.053000421955820866
-0.6180538166421188
0.020574759900461235
-0.37830034479257674
0.30236638020254325
0.8951898435922874
0.5300917287182301
,
0.25548679106617606
-0.40782570683698066
0.19080522618368523
0.05394634608709831
0.576397327309125
0.8870101727342614
0.1256030938873002
0.2257381326530072
-0.3814735050307889
0.20835325731176332
-0.32476638798016855
,
0.14229373083218813
0.0769725769938249
0.05013392683529492
-0.7785418245471901
0.8067272733314693
-0.7804818536909731
-0.09324108605463265
-0.2960533540959603
0.2240897187029261
0.41008400582529264
-0.5678975601815732
,
-0.23946807614253587
0.7631160904274211
2.419177358907991E-4
-0.2919681483596245
-0.2576170756073833
-0.23147974903467114
0.7959341659493666
-0.7910983497897509
0.6498965086945959
-0.5198978851441672
0.8557626138049501
,
-0.3635106924816752
-0.9056130448087797
-0.4635393595849993
0.6588867723708678
0.5451500466265575
-0.318672017797516
0.36687501296878083
0.4897913696916459
0.9064762369582257
0.8013587887334462
0.3112240702723268
,
-0.07321487469062415
0.8324853360834836
0.4328581240450189
1.127143923741579
-0.42842275884057684
0.9366135700623831
-0.5384728333490263
0.23522169562511777
0.4847100611641017
0.21209518951063924
-0.9145978292782055
,
-0.9310838684576991
1.2496986762718145
1.1579393608915924
-0.3563808847329214
0.6047825411187419
0.811452422785384
0.18998085224470074
0.7429815011981209
0.9211935266664694
0.3503664406775443
-0.7293051043860455
,
0.7327911678189557
-0.4947243628313332
0.7782150604346296
-0.6513169854761882
-0.7509656626281274
0.9037404212897556
0.018485518063441543
-0.2649640221942175
0.6721295473275068
0.9861942126040726
0.29684070864233325
,
0.4338567020388258
1.130479724166994
0.6401174627927496
0.424663385515868
-0.05425001354867676
-0.9918677701681828
-0.12697187126333342
0.2818122899263715
-0.5312001818452592
0.8051822622468654
0.8693896774728194
,
*
0.7589135592299873
1.0896776438879605
-0.3114508204099213
0.016899871488096328
0.7799479176223852
-0.6580879959567895
-0.673778790374475
0.9306846356725081
0.30086985798341315
0.40369753722200785
0.2180334640308752
,
0.8809163723042802
-0.06734054074006823
0.3287769362374765
0.2023806227437966
-0.3659064234104745
-0.5970926281441303
0.01661271097728663
-0.24940250583108678
0.35633320130054713
-0.5398917954181706
0.16356166400077465
,
0.975747926379633
-0.04767945872875718
-0.8536131236659136
0.03053431743419431
0.1967210708615567
0.2572468729213837
0.1865677408780883
-0.8012347377634312
0.10772921737056788
-0.9240309448990334
0.8395208116800845
,
-0.7597433963426269
-0.18598107305929637
-0.605672159498625
0.7588946053985567
0.07615583977703294
-0.5472245434868911
0.3913852692115715
0.37072631049877747
-0.9914121932463775
-1.0067599804573946
-0.9906354696748207
,
-0.5782288244461126
0.12486780044264832
-0.9818409305730201
0.39295327793708784
0.5390897797470194
-0.6222257218639788
0.9888806184859278
0.18648849596030997
-0.6799228809062321
-0.3961405503643054
-0.45431405315645157
,
0.4945399574566004
-0.1597040170249516
-0.7602465472457018
0.3936696366237023
0.6375545108575785
-0.948055514233729
0.31584775011364624
1.0006429248295714
-0.7110083977374303
0.08210536625453312
0.9063980351558818
,
0.31219579189536084
-0.739926051500403
0.41334907618723804
-0.5052219257754151
-0.4092009595847333
0.5390198605686383
0.8754130194185541
0.5778871130716537
-0.8142288749196102
-0.6180693132615164
-0.09170558917981952
,
-0.6190731598030229
-0.3926637589973953
0.7001317323589697
0.3982973887083514
-0.23447417537181092
-0.853113720138407
-0.8011390144050148
0.8131324034279157
-0.4466896874066433
-0.7805641065570861
-0.3206244076196265
,
-0.5858251313820262
0.3993678340029203
-0.39616139923276766
-0.05117663076219679
-0.31150412537000066
-0.7723935288201925
0.2588287694826663
0.7054439762091866
-0.280517948161875
0.8243181990423543
0.3981719422732033
,
-0.029973973410537064
1.0857778178679485
0.42954976500458336
-0.7203799630067143
-0.27670910116497893
-0.25919940211209014
0.6788732259418511
1.0685358797954791
0.4262862886391066
-0.22923654940389737
0.8952383261530072
,
*
__
-0.7654453906957606
0.7410131673469558
-0.1859823996065382
-0.49442138164284755
-0.14356601631157578
-1.6730045898435735
0.35282781997228463
0.47382880549324596
-1.5497673028085723
2.252298904543765
0.8330391503074793
