0.7145893005670212
0.2471000121968515
1.1518241814779064
2.320208751010005
-0.6870064894517626
-0.09414482595810147
,
-0.5217572561904589
-0.5765343189802156
-0.7865663849919916
0.04567845892220498
-0.7872444103565023
0.5692865538589362
,
-0.1701764098567717
-0.572678712069803
-0.013086185859931345
1.785371018907043
0.049935452978764616
-0.9112708856164893
,
-0.8405250246934846
-0.4794591103050842
0.5660091740127768
0.8960595357839807
0.3669292390164784
-0.34086389781396464
,
0.37098745219671364
-0.38919864585415387
-0.9406585506784809
1.0995641732840462
0.27647326397795163
0.24083380397331133
,
-0.6496222548459479
0.3636773373176507
-0.9687375447015708
-2.775219731317455
-0.4851843777715252
0.7810516132341097
,
-0.4376705643660488
-0.8370833583443583
-0.5747663100832454
-2.9184151258732087
-0.3011875431652915
0.8392985563822926
,
0.20342828278506608
0.7350889198639651
-0.4831409133099804
-0.02478019181433746
0.007654715711440214
-0.3004097398975387
,
-0.8513472034170126
0.8990201852170093
-0.9747211175148912
-0.6448485497434223
0.5727424064777346
0.05818252321822759
,
0.2812416173752395
0.2496027172580355
-0.18037730949862085
1.1188624230548658
-0.7828576867675265
-0.3162649098855874
,
-0.036635719844747575
0.6494827896500476
-0.36533816439739736
1.815042056375163
-0.35060889219353203
0.08309591397280558
,
0.05488008750776323
-0.4727808022665156
0.1465245939340626
-0.20276498769636642
0.5643689522622352
0.41430987388884555
,
0.4111987336312608
-0.9108119762647728
0.063539598601379
0.9983373079117417
0.2831304072941907
-0.3680987956125077
,
-0.2383299943017901
-0.6760177667881253
-0.06919318784846488
-0.7423094529232773
0.8857194328228929
-0.6903989496870788
,
0.2054161315015394
0.7732617901993555
0.05662761631722838
0.7637109768647421
0.048917936417711125
-0.33712270245113474
,
0.9517907668964051
-0.9188777793268169
0.567350667553627
0.6902633402319911
-0.5622310306789028
-0.892983408349844
,
0.9351208335654198
-0.07763506752072868
-0.9998370630592074
-0.26928257074302403
0.27242023606143073
0.07399830590571188
,
0.6453110535436712
0.11909011941990257
0.822671521610621
-0.5263236811551146
0.32839281164249884
-0.1703733770914202
,
0.1277624830247249
0.5790652613658079
-0.5278777977423856
-1.3664292623361514
0.5008412752358686
0.4567406907083711
,
0.44205297529817583
-0.6911685212881816
-0.52400161058774
0.2837591738367463
-0.4111677522427578
-0.005052785649293456
,
-0.7642643462398356
0.7581494011977413
0.38711664455574213
-2.2424260683126054
-1.0216741503669269
-0.334898780158573
,
1.0617694312360608
-0.13362873405924602
0.20246467629901227
1.3150285188223816
-0.8869137553844207
-0.9106570380583274
,
0.7720047479229636
-0.6261552441993605
0.0041892325511047835
0.4947745430052994
0.5754988988430064
0.09527190314356693
,
0.20908877664590292
0.9096432397144969
-0.4296130063052236
-1.5186948330616945
0.5742120923666901
0.9349414400453533
,
1.0071243270834707
-0.07744038564375036
-0.714035471534898
2.237913788602125
-0.8133103229869529
-0.8563155749176568
,
*
0.7499878633058019
0.8872539659744598
0.9036569843680138
0.1278171811132551
-0.3734658939069103
-0.2333632067265053
-0.8452888644377047
0.2649250367291139
-0.2496558311473059
0.2897950493022867
-0.3401326087077716
0.14385558586909025
-0.15622979276491208
0.5773223631741137
0.33918652846451747
0.5216512745176931
0.1924974706362376
0.24799293170118605
-0.6975364620295609
0.39331161268825027
-0.3249522493397042
0.28098026013928323
-0.5285677267925152
-0.15025368114504964
1.0161389586771097
-0.8774293379347395
,
-0.904119401234746
0.4098405225781323
0.3688845359576654
0.5646144193822363
0.2879044214467191
-0.18355304089970909
0.08161824836023181
0.6641008133222464
0.5024887097956798
0.2802524481661993
-0.9460875240272766
-0.6583805614210062
0.326011336342543
-0.4440033758366005
-0.17957406887049246
-0.14229077563595371
-0.17886753574905087
-0.40587317969836734
0.20240439605121954
0.5104672718384343
-0.2321987503100006
0.058588438211926
0.029098453874976976
-0.10225377636664375
0.2280024540672655
-0.7199408281287392
,
-0.36919131279378387
-0.23322388300365127
-0.5847966936649791
0.6494078207742909
-1.1306132990843067
0.30918818395707903
0.38151358126107376
-0.7704458428116161
0.5572329803100343
0.2848034141171986
-0.6343982469931768
-0.23646964102267404
-0.16951245289297895
-0.7106728064529191
0.15973223003579637
-0.15096491308639165
0.21022919352515404
0.37094793804843756
0.33672119663138644
-0.7746089020568615
0.4580155265130977
0.2797035729473332
-0.3786962604771077
0.1500242558094401
0.7012384066538423
-0.5566622506679764
,
-0.32890191195130475
0.5523390274192768
0.13835674960463687
-0.2699089354521124
0.37772202231163876
-0.4807432863843853
-0.5526290344337043
0.36351737430844444
-0.3349205265620064
0.22331881104856316
0.6321836476399825
-0.7147095980827604
-0.7422603023625463
-0.6327148459299319
-0.16193684282223653
-0.6142951782909244
0.8417008236353524
-0.859735309168078
-0.5688911190605733
0.7284477123137186
0.19359727879153765
-0.20946913021639363
0.361562723712576
-0.5413279929039155
0.004802074888806236
-0.23871657019078918
,
0.09275397861938028
-0.6745893245046164
-0.2572880075975144
-0.6664095997138265
-0.49591559982901046
1.147012466644478
0.4860570998090817
0.05663955389728256
-0.6758270581592626
-0.3638344325678308
0.06360584574203781
0.2075538282279847
0.42743413630317156
0.4953526736985663
-0.5965421460089012
0.6780136287033893
-0.44201658017016465
0.14593950493785823
-0.4549486374168029
0.42305103739729016
-0.5202193735271704
0.0954629284030039
0.27220513363151405
0.20108703277723558
0.9835639607809707
-0.6799555344631594
,
-0.6312907319098371
-0.392461373430564
0.0782143022403137
0.5680768907945078
0.4058479271318494
-0.16678294149489292
0.5699928190315435
-0.6415226041006239
-0.09979977324765801
-0.302128965663003
-0.09312582691035119
-0.05982401012715947
-0.7615304902348596
0.03475896141438499
-0.9757301435803764
1.1657457830702387
-0.2220384915017147
-0.014260038168116858
-0.24538026185239503
-0.4985452067934431
-0.2524014286254687
0.4389904308623924
0.15077281191118336
0.5209735003710984
-0.21275137076824524
0.2450588557830895
,
0.3975239127156171
0.034480368227499184
0.6414865396247575
-0.5925519017489226
0.17479051294421932
-0.03495051300600964
-0.8190442273379027
-0.6576940301066347
-0.4538726902981207
0.7345887526418459
-0.6204696240423777
-0.17356806283126705
-0.7140691856476644
-0.021623065551391332
-0.4842018649223625
-0.029703062205972238
-0.1481941220091688
-0.577897131399327
0.4748188065685909
0.853393440711567
-0.29391794411244404
-0.04082204448905726
0.5948065078851809
0.6154400396435263
0.1846118191932914
0.9009488312008034
,
-0.39092234158233513
0.6327214807194237
0.07056803298489833
0.4641631823140477
0.20397699360228502
0.400237624770557
-0.030738803367056432
-0.010316208817825634
-0.29504545463358417
-0.5780318289962217
0.3162776894827477
0.4423226937374519
0.02387336735479671
-0.5004085377562184
-0.2271884485573055
0.9904064630102577
0.07499537772732304
0.8560990487227716
-0.34925471634347394
0.29555366002132083
0.14586131634700572
0.7658661698645786
-1.140019956376762
-0.1693967086953946
0.9846718362210801
-0.6711550191789681
,
0.2574586291418574
0.9106387378625653
0.10661445695175212
-0.8504789283934288
-0.47105520045467975
-0.35530561702283525
-0.4588661257397419
-0.8578310254833328
1.007334189936787
-0.7713823334062123
0.7596724682791032
-0.2289335242617619
0.733426972361318
-0.3811641462108915
0.22623061744913445
0.31431827747684593
0.42071254026356353
-0.7958634322741792
-0.3169710344599309
0.603059443043617
-0.45426719819079764
-0.14106617798202614
-1.085250751306667
0.4065156240253093
-0.6577672117449912
-0.7411483213671157
,
-1.0969757345978193
-0.9683457201963015
0.4993957164806494
-0.006320068264020708
0.3157159853232544
0.26005337662962313
-0.6347399782038085
1.0049012153144983
-0.6705153518396519
-0.011251721698712632
-0.7448015160018298
-0.5066359503796356
-0.5324446919955381
0.5923468034563569
0.44940931863808153
1.253915818793788
-0.7285415669336833
-0.3676911444275149
-0.585446585740422
0.788180286908248
-0.03321238359931978
-0.6630972527206964
0.6971162016101079
-0.20337872800531342
-0.3790895893763303
0.8039585026697951
,
-0.6144845058613807
-0.41946007845855693
-0.906095097962476
0.5640123854605777
0.3520968052848399
-0.030203111968652167
-0.1339529545358858
0.16483035461565387
-0.1786301557394296
-0.8325664592834744
0.4052048554568818
0.08792459850798522
0.7754946235344546
0.08414674388304248
0.5028161353444062
0.15016597740705231
-0.8738550887067648
-0.1245726282161881
0.7395607217786667
-0.030784160088500673
1.2043941265662808
0.723038831959965
-1.0644686322517052
-0.647291647028379
-0.26058882436255676
0.9623702230735349
,
0.6704025821338755
-0.5681304150211075
-0.4186600915743262
-0.12607823753470615
-0.9455357102006722
-0.5233464084695928
-0.5129604889227831
0.01182495682678229
1.0478510287667169
0.13610879088562897
0.1486429089566092
0.1231753049509692
-0.628798222767597
0.060718673863514275
-0.3085382859477941
0.0856944905801908
-0.7496455371546901
0.034565123299193735
0.88145018428344
-0.7518899845671351
0.6414473184700779
1.1052805139136757
-0.7426159145175915
-0.6299034012825483
-0.01680976368940236
0.29086215533100157
,
-0.08514538705435667
0.850630407004997
-0.6110927572038116
0.69039517928347
-0.9542031267125811
0.5812503675029473
1.035503589923405
-0.5883737681123866
-0.2650155431856123
0.09860340674851685
0.14904110644850357
-1.0595456876057288
-0.45792314890332175
0.4549321518485009
-0.18557318982420387
-0.017605114125733238
0.8784254605557359
-0.07248273568104177
-0.36834565576634815
0.7941940973941733
0.8728622376785101
0.5794551712711339
-0.0027704281829487682
-0.13252279351399004
0.10233448348776009
-0.6934926475834127
,
0.08260870394076428
-0.6504297136076382
-0.28965951555320285
-0.21601656034556257
-1.260656820859513
0.2655292606340847
-0.43808112137658184
0.8447627403395805
0.7395909135362811
-0.025457919789670613
0.00772846710355591
0.5629353523610782
-0.43094372603606823
0.06940141179254948
-1.0611753679750768
0.25378346618817266
-0.7487082175196539
-0.3386506769086989
0.8899229152129139
-0.8798071784627922
0.14856100062648323
0.9152134115707247
-0.013616372415137232
0.6505430960823196
0.14735487443481893
0.3533600867344284
,
-0.8954031999895962
-0.07236974263883712
-0.4350102078546191
0.25746612019367127
0.05456298321097834
-0.7816810345018025
1.020769586416426
0.6455016698993554
1.0536822440519802
0.11400485863508096
0.2202230232587281
0.0759462914372134
-0.14958627726319995
0.798748118611871
0.49125036043248216
-0.5012543362816656
0.39959173122216496
-0.7132061562353803
-0.23155479045031155
-0.07685970763075711
0.7386984537455036
-0.07493668964905391
-0.4594462419666691
0.07870165058943815
0.45853734483044467
0.6410547829343445
,
0.6317248117178604
0.3316703199045683
0.3713374946076838
-0.24168024540860014
-1.0924245260963399
0.3600811066039103
0.16762196919140576
0.8813226332823658
0.23855885866439483
1.022795421351028
-0.16054595150165488
0.6573671858121487
-0.07597524415762376
0.1955907844075997
-0.18075448375730746
-0.27798565485991544
0.10473422192792645
0.6435623632572794
-0.0780038721963484
0.21628430596642642
0.22035607454511408
-0.5157909435598675
0.2787764417335476
0.20139433502461182
-0.9061352728299438
-0.9883171534893465
,
0.08621013338277736
-0.08621087171511076
-0.7844026383074874
-0.9743443569187665
0.4983316944012686
-0.42413562839692365
-0.2307212820285086
0.5191505595905935
-0.49009258402628914
-0.059333180753954134
0.7098553787194675
-0.08318923735513725
0.8324622916764755
-0.3818648359134946
0.15579920403328937
0.5850687983464609
0.3698755870867175
0.05780074798883565
0.27847594389001334
0.44879887694325576
-0.28957608729072287
0.07923442380967675
0.7523680746227406
-0.4822578042812872
0.858793819101283
0.5888828629982772
,
-0.7518659940375316
0.7742518349504344
0.7036723580719095
0.026161683829071337
-0.26664349818516475
0.6777959381218844
0.9673266250304512
-0.6761826556815811
0.6497947669365084
0.035792786694081244
-0.5676355670733925
0.035944909512044855
-0.03064095069246279
0.8908798566669769
-0.5250614277154089
-0.6517124760837186
-0.4821023843623794
0.9333261389300832
0.13484155846192233
-0.6701841287064035
-0.45284897897352816
-0.0050878565086256555
0.11538107786029381
-0.7154597174202612
-0.87687756590723
0.9592102777894871
,
-0.19462863748464146
-0.757982964917604
0.9524490721013423
-0.6413273404849363
-0.0203069239076397
-0.03984895883939569
0.30041222513110816
-0.7976738781035806
-0.5799111960857887
0.8392829908859026
0.4842547691463196
-0.5224983194268108
-0.08748547052710394
0.5783267734560112
0.4407948377794588
0.8615128191952858
0.745487811841283
0.7935808362552367
-0.15024049825318672
-0.1451800104698495
0.7063902250021002
0.3997015618907515
0.2379550813023792
0.07842343427727004
0.4418233840218143
-0.13781372114525614
,
-0.029914486355088622
-0.31101587774819484
0.3827056910074674
-1.1025647025192495
-0.6226011951802398
0.2315649454230606
0.7480987422287558
0.00110924622369396
0.6418040661252068
0.30651875423774083
0.2530338428916623
-0.3836295435294688
-0.9509925098138738
-0.10992147234525497
-0.5578209952143349
-0.6226609562180293
0.6735828418088711
0.5693116075011858
-0.16512870943441613
0.0699636156191596
1.2126621659152592
-0.43778355958854326
-0.7080163551942171
-0.9850367119099032
0.33532166279632747
0.7348469658618999
,
0.7770384446220151
-0.6804947448947594
0.030576564149301756
-0.6746754190776515
0.31059924590808374
-0.65807645681615
-0.4685487945249807
-0.07950816554898796
-0.43531426053401917
-0.698330274044186
-0.714880088314371
-0.30691355035548223
0.8211105610642171
-0.03903477488664265
0.5169369707461807
-0.4376950571953053
-0.2517436227107904
0.2569809497142737
-0.01889320788765275
-0.8212550393636943
-0.6141707569837075
0.9047367019052839
-0.5030606576901215
-0.2715776191647387
-0.34123408706105207
0.8632697988144875
,
0.4128300582646292
-0.6761843746536256
-0.8614402545553708
0.5868470169623771
0.547972729277238
-0.3212167183500794
-0.8539270012187467
-0.6498627674250315
0.5907763360143105
0.38333311524623054
0.46368319754243165
-0.07036129316260646
-0.008639160498625932
1.1197528276383784
0.2836830956906926
1.109893337899406
-0.10262220405277214
-0.8547835772926268
0.34603647484498057
-0.7476087087025528
-0.6013323151020334
-0.46140245383849837
0.5060372289145415
0.7900265203192266
0.059158033797810074
0.6128293527624389
,
0.7968620227049417
-0.18553084771360306
0.8927442593812185
-0.045377548619894965
-0.25887318746029103
-0.6160348042206466
-0.903052881788254
0.9517492676885444
0.3757691301280224
0.32945593573555804
-1.1868292075854066
-0.3072738451562584
-0.20576609205305602
-0.10630944960020981
-0.6772916485621615
0.34121543490368483
-0.1969410459702142
1.052861122169596
0.19507271930787398
-0.11190987188238488
0.28747439597034397
0.07415439018600063
-0.026072346179987767
0.8403100112307872
-0.12522821515426263
0.29747437557166356
,
0.591585382623153
0.7415151579131496
0.9437854879161693
-0.27868817464787515
0.17340751409999533
0.9106353941507711
-0.5328674994528394
-0.09761817634470561
-0.6150916345691059
-0.03355214775708696
0.40913672779462273
0.234525845064755
0.5952640904685342
-0.7059548245149865
0.8239345437045617
-0.5788853839332929
-0.2946986067375795
0.15528189918421154
0.1869429789356318
-0.7129422301757565
0.26680574115702516
-0.11961646654301779
-1.1571844975498287
-0.736016273240809
-0.7046185476070973
-0.955989438702241
,
0.33995401633298433
0.7491596114962311
0.4199338676939271
0.15204275750578358
0.1732652780894312
-0.43863612379510414
0.2313948903499482
0.32624427013675206
-0.7704378138848277
0.42980819879179505
-0.28915460359404876
0.06109519611098414
0.6321653293028775
0.57148426523403
0.8200075099107503
-0.09293641272131785
0.5368795269584573
0.48966825268740755
-0.49298482286938233
-0.7022847963164606
-0.5084624358336366
-0.607319153445504
0.5115635264797734
-1.0432387011836028
0.02794432331405625
-0.3706408243914123
,
*
__
-0.4163913569371721
0.5809820881758097
-0.18467201690255283
2.3534334220607236
0.030463385743371173
-0.0778995738833536
1.307374192448427
-0.8222011474407543
0.15321074232703857
0.3798909004662171
-0.10825957879342622
-1.7703487222965977
-1.3787981937262965
-0.6061196356335276
-0.03842150883977042
-0.8161388243027649
0.8709448790384503
0.776679307638902
-0.642115536941029
-0.6146134835887195
1.713572885934326
1.2480135527364695
-0.808940376039942
1.3153806562878174
1.718931744833976
0.41917174178430616
