0.2413787553892697
0.7350255736154669
0.6928896865587442
0.3437801640752224
-0.31400191457476434
-0.7198672738481975
,
-0.3828276430476008
-0.14416593436090483
-0.6942159405811902
0.15163590800031992
0.07012297541784272
-0.6486162673729403
,
-0.06696568723926427
-0.8663234037870301
0.4708699173378941
0.735828958831281
-0.3378686198169428
-0.5942573226435075
,
0.5509845113168127
0.9577773962088136
0.27083659086890827
-0.27375647240299755
-0.2552863139522909
-0.42925398951156546
,
0.13691583108097952
-0.26370876508934415
0.21785898065069775
0.24799880748382488
-0.04064581257890068
-0.7768057348452695
,
0.11317149767286946
0.90518152402822
-0.0027643949119249933
-0.5750496722559045
-0.2810240235647001
-0.7438760465445158
,
-0.17515701715320597
0.6916554193857467
-0.38545451703482553
-0.782863669316716
0.5840909979170361
-0.11665119089734866
,
-0.25472229439622246
-0.36008040456604423
0.902925197918002
0.4352375602672774
-0.7250274041331652
0.7039705247821488
,
0.9549135948864761
0.9066227754465598
-0.4545605157816633
-0.8223789917626924
-0.9494233948718998
-0.9602970007536931
,
0.09472231564430376
-0.7097356483495653
-0.8138333979137902
0.6833705894971299
0.7152390616454682
-0.6791693444797413
,
0.3745712124696679
-0.07274112185049399
0.8007546526042645
-0.794557146957515
-0.7235067370497734
0.7137751584049126
,
0.8973034368282461
-0.44307962738795104
0.7590780574909954
0.7616075520257221
0.2706408219057582
-0.8450384882765773
,
0.21620009218784142
0.20717459466523375
0.5475389439090244
0.7870279601247334
-0.7332912093764992
-0.3989011791933774
,
-0.9291786297908085
-0.4055389677931103
0.30506983293772294
-0.9619716933344584
0.4488505941839218
0.463012118249309
,
-0.27740856847319634
0.08606507735185498
0.9811923607783617
-0.9733149608850885
0.19039424560216778
0.9154183955433082
,
0.12484759172140654
0.6835527680437573
-0.754231205644256
0.5881913748860632
-0.033383904342998545
-0.15607290966325138
,
0.7255479871843928
0.8095168355283813
-0.17830333612057608
-0.9952177128586032
-0.9618786004446037
0.5971982531666773
,
0.46102553618108927
0.6571616332004293
0.13479945619760209
-0.6966098635541962
-0.7688617987695575
0.16950647338975422
,
-0.787502730108424
0.2635554633502683
-0.5706276661562883
0.6174554458695165
-0.42828372286211336
0.8785710825870656
,
0.5861679822209515
-0.4916799590448437
-0.05586107939378268
-0.6055427689892651
-0.9301374415239559
-0.3241826253779081
,
0.5629375926703345
-0.14179298157105158
0.34815081816853655
-0.7997722177701103
-0.2552977661127408
0.8003680749904756
,
-0.3791149059501136
-0.7089969791614853
0.4252321114691811
-0.012942696492386002
0.0950405178133232
-0.8480788255741654
,
0.13344283446125202
-0.6982604717294988
0.13979372430653406
0.5592296803188636
0.16591834927661622
0.3178886466663031
,
-0.1959496343053197
0.7184328475280345
0.514194250263826
0.28109578747991554
-0.2982599754694579
-0.8278570552293862
,
-0.12068220762590973
0.5331899074498354
-0.8047567224275523
-0.03134126089205025
-0.47320797595126446
0.11058250355379728
,
-0.0831181632922321
-0.6828237817275863
-0.7396668466916363
-0.8167291198348167
-0.7324677547544892
-0.2346221137561808
,
-0.320269336748229
-0.6773306600788473
0.18600410616118196
0.8415747711839942
-0.8217388472038749
-0.8731660368677814
,
0.7598610339724391
0.3108931587237412
0.5341763643234789
-0.1453639096831584
-0.4011545790130275
0.7996932301347666
,
0.9300737144003571
0.5599246918121078
0.6017291792862466
0.5025401163509388
0.2583633885306591
0.24855189175430858
,
-0.08748261726868671
0.7218685453826035
0.14463308835788835
0.9383353500550831
0.1145887713161465
0.6827509156539722
,
*
-0.2076151910053932
-0.8719100173669802
0.48448688267187107
-0.2923076064775208
0.92821444555513
-0.747668201715785
-0.934095089212344
0.14527500528791978
0.47344752175418714
-0.18181396867871844
0.6274030071433443
-0.2627162021178614
0.2790244944579041
0.8145666895914068
0.2659052322205971
-0.9831037548240301
0.3623234044598795
-0.5341394194994966
-0.7750375916739178
0.21890797901396822
-0.7242022929663491
-0.8305550714492875
-0.14063635734853608
0.8169873045853911
-0.9268867300184372
0.47539497709929923
0.13258194352061098
-0.7908703863666589
0.12535781606904695
0.20007697205985983
-0.9933404709870957
,
0.36480816280397665
-0.5759246306732958
0.7038723665753058
0.15667375066817396
-0.6700240607771593
0.5919366418346065
0.02770854514367461
-0.9547725233144589
0.31155656632134576
0.6388805462696421
-0.8726203805593243
-0.905457544662217
0.8430555287341917
-0.17005473299717588
0.8576619280917784
0.8932460279656623
-0.01873044882996359
0.451084570029999
0.4571983387272049
-0.23527339450778958
0.8214809001887343
0.17890807406412595
-0.6945258876579711
-0.2156554265633181
0.7724650341971132
-0.14399381246618057
0.4916742363934705
0.3803630532536932
-0.04804966340934171
-0.04069612894549677
0.35673228061285944
,
-0.9724297079205817
0.8422426476497263
0.8292906002200127
0.5666054141479268
0.2305238986853122
0.9079353534221482
0.7944773623546245
0.5293180318968499
0.9579016784960876
0.28689033994135393
-0.23445753120282037
-0.03255812178150568
0.061262993062236565
0.7833122623059692
-0.48382017061258303
0.364290326808644
-0.2721423561179462
0.5631538053455938
-0.016048617200963
-0.36836651927510267
-0.9216980350109446
0.5537433501176174
-0.8218100030028759
0.8223534136788729
-0.8761085424808637
0.38333090259492386
-0.9949239283729981
-0.967568560416386
0.9822173189789698
-0.9501608486436989
0.2082889883482968
,
0.7168000531841857
-0.9592166359947426
0.7516869920263202
0.9773603609037482
0.5521253909160452
-0.05723840306417954
-0.5681159364883863
-0.7146619225560746
0.7507597611092581
0.822819561924861
0.46879318089391886
0.9929101637305127
0.211468477327493
-0.05481741090709714
0.6019162023546488
-0.08887139804820575
0.2906134040376845
0.08992866448804293
-0.2615652544354003
0.5704605574525405
0.13197544059947688
-0.5923450763264263
0.5789363016498659
-0.729865896286198
-0.5411248681542166
0.2449834751287724
0.15131983503084892
0.13848224081425228
0.5426648905407964
-0.5159227913448102
-0.7233902570008146
,
0.39445578461783165
-0.3483072164353398
0.3049138502397637
-0.23635258386208816
0.7711955149402666
-0.2915838585461287
0.9762265225482111
0.6833541076619869
-0.8277901854709736
0.09149206919263653
-0.7548360229541198
0.4886322074969063
-0.017339825047567745
0.622058335570314
-0.7438565644361845
0.9039146946935319
0.24824425569887199
0.5036595200729124
-0.5208865133399007
-0.45470272766476594
0.8617813924590493
-0.18110196417739988
-0.876879647088062
-0.9431879731021435
0.3416681551340069
0.5133810371480106
0.7000348727158424
-0.8395707042928248
0.34028012787389206
0.15959704112208847
0.016526827036156932
,
0.48242065308952664
0.04239327625298751
0.9090060936339095
-0.3177787403122274
-0.7163619813592951
0.8880416198742975
-0.07707872222205218
0.4622006734891605
0.2634101167899193
-0.4075000356940931
0.2987642973566774
0.24193700595499718
0.5309295514055428
0.4102262131794599
-0.9094866580300904
-0.7812173483288145
-0.48800970068783184
0.7254553806750291
-0.6720448643322408
0.03374019232112318
-0.9370033458116123
-0.3522257582427455
0.13815785234679293
0.9983480016558645
-0.5873787971393097
-0.923735226265666
-0.9695794329506152
-0.6927324475780693
-0.34345651371474284
0.8693684681441576
-0.7846982952018109
,
-0.8102346533516961
0.49608203793939054
0.223587721478483
0.4136292845287258
-0.6788428464202155
-0.32306190066325075
0.13556478419929377
0.04115515057337608
0.49981761694116256
-0.883654414324184
0.8843151606978658
0.8812600303159662
0.5694642769050076
-0.8220475157626295
-0.06514589897094356
-0.6134846300379814
0.9243729176166069
-0.387249311369017
-0.7026403944989343
-0.38408917241606655
-0.5280881005683903
0.865163859426527
-0.5303233171570918
-0.5128430609905985
0.9577554211534619
-0.8831874946617372
-0.6262369102454661
0.47934479255364787
0.7100990893148429
0.1444879611767613
0.40215515214019826
,
-0.7711035887778867
0.4746045648891986
0.5294975703616192
-0.40542167252691935
-0.4238800508814664
0.8678518215465704
-0.03107425103959218
0.3069544763990394
0.4812845426166115
0.1598562166801544
-0.4406173824895092
0.2390779527198396
-0.93834844073043
-0.464903500352087
-0.25432841018864444
0.6766527928181307
0.4007659112617822
0.943128121370527
0.40862845045622714
0.9595282493307074
-0.7079617129772201
0.5369257010143056
-0.008832412331087223
0.715345693593322
-0.9136756634078681
-0.6555533229190196
0.9617492235847043
-0.7321107117681215
-0.06804429092864857
0.46058888607134324
0.9675657121516739
,
0.754370842913191
0.4005324466629685
-0.9149114412318514
-0.9366129789968587
0.9386908579519161
-0.8977825642364586
0.1559437326138291
0.07258360737712605
-0.46205927839029387
0.36006048550924513
-0.009206201774539083
-0.1984743032481561
-0.11909610350320785
0.1913365547171272
-0.6708434308996002
-0.8663819896033204
0.20435075879423736
-0.10627450062861138
-0.51434589994329
0.27165720589747155
-0.45863636959229354
0.420159977320694
0.9482338003576782
-0.603526255061457
0.2255102081268934
-0.6508394527815756
0.6731793879776657
0.8262110720494992
0.34004016864548314
-0.24172092655179
0.5907613881422653
,
0.4014098775932575
-0.8898007295290821
0.6024961400825365
-0.626610025619477
0.26732607744839537
0.20480821797693136
-0.7017720353040313
0.401762185562728
-0.5135976939950068
0.15007892924306382
-0.8940907647692768
-0.9571897446379473
0.9688575643082175
-0.27171250597085617
0.6929280364991163
-0.16298905014806594
-0.8593491822247946
-0.9954453650599729
0.7245505049540618
-0.9898546513616726
0.3892653780865759
-0.002412943516319938
0.747887752337808
-0.14990044622020368
-0.07017602574059341
0.39688285500841886
0.7485838640242092
-0.10017622487233445
-0.030427572748499186
-0.3687047927261623
-0.21026751468820137
,
-0.3224474858719405
-0.7625399146696699
0.7557779214819631
0.8794806846669729
0.6988077403785873
0.8875152710905374
0.05062527303813925
0.8738152162057872
-0.09246542769842699
0.5174051041910951
-0.9812572990993006
0.5767600139815602
0.3647039742070044
0.6367561337389465
0.5545146941026213
-0.51733187481684
-0.026951500060248056
0.3178183797816187
0.46229793048712403
-0.38499237907981704
-0.6232120165943272
0.9135155592985222
-0.797037453723542
-0.224475509420209
0.751731280892322
0.7863488686132455
0.788947954973936
-0.8093576457893839
-0.8330886607890037
-0.21023645199931504
0.06688072113944532
,
0.013842256037939333
-0.5763298624624638
-0.1246232321472542
0.29669338610558965
-0.563482703871579
-0.17417091564569612
-0.3521128446177581
-0.11357938372098485
0.2543302576974552
0.2588303622508812
-0.011234077127840318
0.41192670747528537
-0.310866036951092
-0.9857917670835348
0.8486000045930757
-0.3358115778771665
-0.08821548261649954
-0.5065559544669648
0.3099994160171801
-0.6551755514732914
0.37948994709460954
-0.5235960803027784
-0.3810345630372668
-0.7653787492724892
-0.6957082051545356
0.9823387728883395
0.47497842188211475
0.21915700679152167
-0.12424128595826102
-0.9211638692214267
-0.8906067847596693
,
-0.6321399320334222
-0.24769325174846124
-0.28035369123911036
-0.09611137072640953
-0.5975136047748862
0.1347090056187097
-0.19429081034711557
-0.8430670331081717
0.41169029992021455
-0.6155296065940334
-0.9909163133439142
-0.5376610870275937
-0.6498011455620619
-0.4727479327399465
0.5771057329719654
0.6508819970957209
-0.952178186509202
0.19709638935131904
-0.6735176771974674
0.6799481583822558
0.77331001746162
-0.3203808903092847
-0.640426713664226
-0.9564712939350087
-0.8268926969452041
0.496986754655387
-0.3690705802646214
0.27487090413032594
-0.6185332882813703
-0.3220773585144118
0.45136475873462567
,
-0.05502847808722497
-0.5340677180034312
-0.659034341962723
0.23127816170407609
0.1991207152452914
-0.9814477781675945
-0.5104278523042144
-0.6465736078161924
0.29875282694018895
0.6558641303912571
0.034515241701131606
0.898594895534156
-0.06577205652056513
-0.5342969125576712
0.9655308868266409
0.1634998691088918
-0.8995332678074206
0.05544244390115748
0.33710416014419814
0.3837499591810238
0.25660042731866134
-0.29584405874938297
-0.7434204715277763
0.8839293688332177
0.14761661886679026
-0.6144203327618889
-0.5654604985884601
0.0035727480025488805
0.2101831491094325
-0.07070560748888179
0.0035724231933946804
,
0.5741903667336914
-0.21601612294808073
0.4185725391936567
0.31310412184027314
0.45526715949518665
-0.4953136990590537
0.10785530085653872
0.1622244620977837
0.7454567174581337
-0.860851659758936
-0.47515029967307315
0.6059856447570847
-0.4666962834740749
-0.9361956224089304
-0.6493025343725829
0.7900383453578372
-0.06520107937335484
0.812383635744391
0.5632355062630482
-0.4345894271532142
0.8961283615095463
0.9681582585412962
0.907441538685956
0.6846516615520356
0.8366960331078995
0.45719157824700646
0.3177525450093507
-0.8286539293789696
0.5617353616231175
-0.4958274986330592
0.09789403272315611
,
0.16953558307688416
-0.03136558300762112
0.3688871745110313
0.8381326994400417
0.07544420089893324
0.3058253523600863
-0.4839007283665155
0.8665766403773922
0.9485318725443763
0.19006891658742567
0.339139710251728
-0.1718465267302943
-0.5537257458649887
-0.4088661618041347
0.8748475470826109
-0.6039641872168423
0.3149749221195536
-0.9128426986471119
-0.040543881868478425
0.6340200874845454
0.2698108309208457
0.2186810029689486
0.18667728258445795
-0.5491078398807218
0.6108706507522773
0.5757251219879982
0.7227052357228431
-0.20053194003675584
0.2852964019905813
0.36747385959267626
-0.4608279961774224
,
0.7970790798770965
-0.7329328423381686
-0.3452397607486101
0.9519473935402092
0.7813792805981227
-0.8946422554799436
-0.8268560954352067
0.483333289974772
0.46970174306950235
-0.7160658510652723
0.7278901111619331
-0.9813429223637221
0.8457348541931831
0.6403403754036896
-0.4850332067208962
-0.01831896078657827
-0.8177107685743589
0.5003153609441603
0.3987941998558121
0.8294920564766853
0.6864903760615517
0.42590274301005704
-0.8231484340602563
-0.44793888257766623
-0.33571940369556613
0.5030953190099163
0.16298040991584287
0.05689557318165241
0.8050846800168701
-0.04512847247716158
-0.9544540268355448
,
-0.6700132995191361
0.21969430343486282
0.5341878203148092
0.9015225253204538
0.0928227970729162
-0.8097764131381419
0.6133408755005929
-0.49309556091147766
-0.7177968761272385
-0.7141794504538584
0.22679099233675673
-0.39555164492485545
-0.8041611483853716
-0.6585882810775182
0.3295505968517622
0.7129886364308335
0.28651406282513486
-0.706558175050554
-0.42504580604357495
-0.7951293552429575
0.8210875926621913
0.16247236661286182
0.5310550349031452
0.8658899537363121
0.32513642336008725
0.6332413912091883
0.8913975139603102
0.9980823597556827
-0.4033725310621074
-0.22639143789512023
-0.5077592954992429
,
-0.7859342706195508
-0.5190605475985947
0.9390713578412239
0.2154983376792306
-0.5030088984769221
-0.08164634402442116
-0.20066806563237533
0.7389587946371019
0.884974182304087
0.01658197154836224
-0.39997119156219346
-0.03425373196993727
0.15664671830455426
0.6661684076212067
-0.8800735743312424
-0.47691976078534365
-0.748270451063286
0.20897877604093482
-0.30166131043840355
-0.8465567378663792
0.923099555022525
-0.009527156171191393
0.6881330643851166
-0.9696295056033489
-0.014305088445087948
-0.7818459603171388
0.1683590969788279
0.10411740181552277
0.959131751861218
0.6514737760547005
-0.6114995167944626
,
0.4130974042950452
-0.5586200105254333
0.6411079591698062
-0.47942251063625213
0.9518276188748364
0.49291191475907487
0.9123071760620922
-0.4511240819639548
-0.7769273091292958
0.5830809907289297
-0.9125441027026933
0.8720973644117821
-0.20815874573970192
0.20536041973194094
0.41325763953840333
-0.9342028249822976
-0.6181459585398783
0.0661305710712785
0.38228977717112356
0.5823568573857767
0.856603858790732
-0.9338148068171106
-0.9445571765849231
-0.2534109644554818
0.2590041863305649
0.6573815043525092
0.7302235366992524
-0.7137501747247572
-0.4630844232791877
0.02673732904540952
-0.6523307966667857
,
-0.1337941004375411
0.9871296639185504
-0.3112099575039209
0.48836091167169154
0.6193575908573985
-0.37286961590700773
-0.5184347008737598
-0.8266094916244967
-0.4974045557033612
0.5902222217208981
0.6548613384726482
0.8023872028672675
-0.5717111405531657
0.6195345599096229
0.9327282747042145
0.4942878185697325
-0.321602567464701
-0.9514248740567451
-0.3682454073490235
-0.1247520797430133
-0.2787833440953138
-0.5745693451481604
-0.2591968068554905
-0.05415469539948231
0.8398525623103259
0.8609981946645617
0.7486739795646236
-0.0020403290356266245
-0.8082429313382173
-0.6357275718028609
0.4254559478422144
,
-0.21621458418439
0.7497896534661144
-0.6935472836870867
-0.7360702322098688
-0.8362962213458346
-0.410215038066294
-0.25518202021612263
0.3424200983803499
0.20390898588501244
0.2650210615298131
-0.15255705345551526
-0.5156765000849716
-0.544457350995483
0.7121972074909828
-0.04241869910401581
0.26134974398308747
0.46176543603708814
0.11111679559752945
-0.05919362392859098
-0.8096509461061143
0.9062800266480054
0.31611814987649045
0.3539027400859868
0.6687736862765802
0.8070813502099468
0.15527457017034685
0.7334321032397867
0.7007231684608465
0.10828848221038352
0.7486548166909195
0.8067567590940605
,
-0.7398368927011503
-0.31718363838207686
-0.7968968507313572
0.8193593915587917
-0.742031987637924
-0.7396768237920616
-0.421643770524712
0.3074650885440539
-0.4876814514553536
-0.8148284848817636
-0.10468195513394007
0.6359655817331381
-0.11165002171805637
-0.09616306582462267
0.006148444462128406
-0.575999749281234
0.7585228417212435
0.2454722270873633
-0.26518899653595185
0.569298153039435
0.426326560744933
0.055255261705803686
-0.6340650339779983
-0.012992176396728318
0.6869993220221985
-0.4594976863895604
-0.2676261176395456
0.4420206952636242
0.8352628823128581
-0.03157020089560863
0.46802981561372214
,
0.8682210828274899
-0.3504335826908798
0.5342889503778876
0.7928519431113187
0.4160662396950889
-0.5012932861990143
0.2734747055084863
-0.8610256463613457
-0.8284452225563763
0.7395571897239768
-0.26482464224629787
0.3340530565366269
-0.06672026653998898
-0.33600394648131376
0.6719220557745532
-0.3319869103425479
0.717335651991489
0.006266301004180875
-0.43571079052947664
0.1477678904807626
-0.16989068766143384
-0.3205466853514494
-0.030684605676342736
0.5032306847293458
0.1603534290491235
-0.2350057722595763
-0.18077414942962156
-0.8772865877803374
-0.8249364713344398
-0.8058373407342776
0.6189996669749371
,
0.975977490860967
-0.4189068283345061
0.3554216771688757
0.2524741846763937
0.7965587858315409
0.9564895521884793
0.003501160223435971
-0.4376856689252223
0.32715427922673457
0.9277398578640561
0.3329969930688297
-0.781607313395046
0.29523089831753224
-0.7662929645158398
0.6703502552293952
-0.4663067022916176
0.8379149569162022
0.13332410460550614
-0.5157892817057099
-0.18390847292319357
-0.2652432682490407
0.8260246097752585
0.6249793568969418
-0.41384923243720373
-0.6388284083418211
-0.6928994208341116
-0.48871721997529594
-0.3852032941386433
-0.4270701182562498
-0.8476060764411651
-0.14903059497423654
,
0.080742435713617
0.0027847270427977877
-0.2591927603378341
-0.07909547218718849
0.3320954754211334
-0.031544197463709824
0.35374177698938664
0.9183902164471754
-0.18162858141960206
-0.6868609219042805
-0.7501377663390202
0.9549123289705563
0.4791822367422754
0.7070968561826007
0.22695959647792147
0.4084832228089486
-0.4095836088385371
-0.29808760212238583
-0.453734105876881
-0.04054400588981276
0.4888713997047439
0.7112440942691689
-0.8452266857173798
-0.515153055968855
0.8434760026663826
-0.5824529630716392
0.07852213407143281
0.1763900249086923
0.23737182674311008
0.6718204518568572
0.5724343974090023
,
-0.2627167596428786
0.693188167187181
-0.15037470175960288
-0.8300082090674555
-0.6856493335445126
-0.5214292343145139
0.8566910625614818
-0.8920511434152731
0.9645707810707428
-0.977221077884382
-0.526382083930438
-0.1995395143073663
-0.16317576800057473
0.15312191416644297
0.6172568221897041
0.9746967064831878
0.07068925453926725
-0.1213093640774336
0.18165562013148828
-0.10122765358274495
-0.6246014785131793
0.05597803489701368
0.6450738483001635
-0.26191836346504077
0.7235701668487967
-0.11393656099203486
0.35218775741283465
-0.5296119197809918
0.18330044797551717
-0.1665403039064552
-0.47721030797427466
,
-0.9638780665977067
-0.038067275845834886
0.9518190255226574
-0.6171525996794647
-0.5585655406350236
-0.9495401107565532
-0.22208455602699032
0.5747169489909687
0.377064736607274
0.38813710305803345
0.9210322021442711
-0.9974189133268052
-0.43465417758322067
-0.4254488374830634
-0.577901398640117
-0.3972428199613389
0.6022203995914176
-0.864040720359272
0.4372934433852568
-0.8085138984611667
-0.7883616501099924
-0.7740912563230973
-0.6235125048104819
0.5207832855774943
0.11083482751309691
-0.7625998794108463
0.7855186847751687
0.9068037395427814
-0.5677979478385006
0.11142054697652898
-0.566306550267863
,
0.4144758177248165
-0.5200255210990984
-0.3580025378300466
-0.1516474590797645
0.49090418617305254
-0.8593922260194369
0.8268339813772208
-0.6623798288247142
0.10298811676396995
0.525699296787758
0.42107720143797067
-0.03944448656452771
-0.9786335352663248
0.738020510874353
-0.6311840268259817
-0.7106754722238557
0.7043868948372026
0.4654869939751702
0.43071136473765986
-0.08698656654268637
0.3559341821920133
-0.9400386368551673
-0.5449210786354789
-0.4024339547937723
-0.7371951379707042
0.23543831568951085
-0.939711826466439
-0.24370257913533072
0.21936328780967468
-0.007478665994671688
-0.7773689192578364
,
-0.5288254955876771
0.9819372260887022
0.6150013295866069
0.21103503455040082
-0.3026971405875093
-0.9121602568754443
-0.4089662027177271
-0.3319192781143944
-0.5580259720679354
0.07735459915951867
0.192684948426591
-0.8047697225704866
0.788991055262598
0.16474293227779058
-0.9151983377711167
0.7925412919331176
0.37296050053313956
-0.18174390101810983
-0.14700331149513474
-0.2902903913636869
-0.3651013997060813
0.2364841003692211
-0.41206281842679987
-0.17496953357506198
0.5493803367600584
0.7882104317660529
0.8085444745520114
0.5553523206025374
-0.14982599353175144
-0.2975888451182863
0.878116055673124
,
*
0.4677989315756304
0.8063572481493166
0.8732434169655605
-0.1570191836039697
0.25317732435562657
-0.5101178183542204
0.5721297743054852
-0.8827566127106774
0.554248336580369
0.2002459213327961
-0.9238708874062397
-0.16618003962924255
0.2236518490907253
0.18615269600757872
-0.2993892850367638
0.8223902193913603
0.0505143566382102
-0.8373315490976208
-0.3629984817676338
0.15207222367013395
-0.2831212340984667
0.21141602225129297
-0.935414104661537
0.9811104112087894
-0.18803393482063094
-0.3465301756160357
-0.46026087235876045
0.06091404282951052
0.11473765379818056
0.19603127997926864
-0.6194240164280171
,
-0.3698320631791289
-0.006572778734954318
0.25246107288080083
0.9182399287187454
0.7050735414310197
0.8175369078896509
0.7224834979882988
-0.18482730505962988
-0.22639521556148004
-0.44684816035650454
0.6924426473582107
0.4185337075136023
-0.21519157074101683
-0.6684813290905048
-0.4560525009523561
-0.8768374999396761
-0.02772165339734512
0.7373405452507449
0.799045712921638
0.0447303317989528
-0.4670681411664258
0.763148666174823
0.6106735243588153
-0.027818961743287712
-0.5240922749252461
0.9876997858126507
-0.6816342220086204
0.5322450342847257
-0.9257778566333255
0.3571195384639749
-0.31093652822921847
,
0.7465750966741895
0.22439445004195216
-0.844621877239458
0.6004741025969486
0.7917589410126572
0.8004557392253201
-0.752698943294597
-0.2620698017063881
-0.36633138459749537
0.598486951480739
-0.5402442446611763
-0.3721033117137017
-0.549874731883264
0.8213001480594581
0.10448839282597362
-0.17812555899680574
0.2633330275728644
0.24375902317023718
-0.9047374307190037
0.355077709820982
-0.9550910080344053
0.13351529876890378
-0.1980673635051083
-0.24290914914900744
0.7094036110702373
-0.152094951289199
-0.09530018479555318
0.839767986844263
-0.11060331071345388
-0.41710836139010793
0.8210225418391517
,
-0.7802194980584374
0.11720534262139656
0.19218520672469527
-0.9753497323052079
-0.8527024291252953
-0.8211845385881039
0.225659072437892
-0.5008889378461934
0.5578650205891553
-0.22524113850483826
-0.647002464381398
-0.07043306141030607
0.49144218069836926
-0.6645025335118241
-0.7892833664243547
-0.1630804990410676
-0.9855954541972769
-0.11086376524300497
-0.6057475722512171
-0.22194303099127022
0.6060718229608784
0.17293941237857646
-0.2588313939920571
-0.001667375544810865
0.6087589580138237
-0.1145305100572877
0.4065232676755397
-0.5201977452155994
0.8019175746472154
-0.10931596464126603
0.275034822722626
,
-0.8297395085908177
0.3772580973238955
0.4869448519999518
0.2360596850471716
-0.5984259941051232
0.7166962713976356
0.44425900279766356
0.504629123699817
0.960763160853032
0.22844987511947193
0.38926023822338357
0.767752731007559
0.11355309172992191
-0.80617076658566
-0.6509779914801882
0.26953940819098654
-0.01865989538888891
0.11189694981672542
0.8077204364289976
0.10306861291909997
0.10764281305337792
0.307203959799278
0.41389842409320055
-0.026478406496443757
0.796923972878655
0.7555243915019686
-0.3095549601459604
0.48889198605534767
0.8796111232247992
-0.01859299613995203
0.5023791889542224
,
-0.38951618718909636
0.882843870678842
0.6673516252880192
-0.12172541606401749
0.3532379800629646
0.3208018964116332
-0.8108382656157911
-0.20222744686446162
0.015257052418767864
-0.21867193488061828
0.6525860832464451
0.012964539386106366
-0.7134580685567298
-0.20784963593915134
0.22232180328166223
-0.33485630882176864
0.4225540061414214
-0.9059843950886255
-0.4382471933093158
-0.5278161263513504
-0.6622839042350201
0.8354534712066071
0.9699046218227152
0.6177535634645315
0.9551552688143834
0.5029802333853216
-0.4991644257211114
-0.875240773102442
0.4543088226959484
-0.09117842019472167
0.7380341628547449
,
-0.569325194302253
-0.8819107410892921
-0.5464004402072222
-0.7784857188215951
0.1996233914262466
0.45000589123551044
0.06554653819444646
-0.4737140469522963
0.9547791659231799
-0.07112592810870483
0.6877463553028825
0.9305887852943734
0.044677977444717715
0.30971017974275955
-0.9897642522238271
-0.709632148138405
0.651999565937939
-0.24220754527095395
0.2804775593680446
0.23460583858971806
0.08225839440141097
0.22464915108215566
-0.5968020077390821
0.1364494789313577
0.4104055691845469
0.508202130795886
-0.6513049749996953
-0.5493699146120093
-0.2719622487025708
0.18193721617068995
-0.11455108086397203
,
0.9273160393811746
0.6533577687198986
-0.7922850134130579
-0.9126362259243005
-0.9858825159685433
0.5941085566057328
-0.5346719947321246
-0.32367036374900665
0.2910430287587842
0.31031113252729303
0.6362216095063823
-0.6901222271531281
0.19760168590394442
-0.27602123228693703
-0.06149396065757732
0.21117261905191795
0.4905934592697842
0.6607363983418542
-0.9185627803323311
-0.8539107177590696
0.8843811982558054
-0.8105684313078467
0.4194036366998305
-0.2981733693354519
-0.8496229894016512
-0.3813365959995716
-0.17205744234235984
-0.9335562488954051
0.6015436316183591
-0.1888239532096637
0.055410746164787694
,
-0.9622829372172426
0.29153691227345213
-0.5338211605949008
-0.5271940731412245
-0.09932222290163938
-0.4294338240147298
-0.7024763641425624
0.9889715375814638
-0.04436157973419808
0.681033487505052
-0.400644298120654
0.6818760233240156
-0.9977090597365665
0.960729387463764
-0.3900600738518862
-0.7814982830088836
0.8741796998482327
-0.05650491486812718
0.31478950228637287
-0.5222381137531565
0.24047951730695052
0.11279240784859283
0.8014576337742079
0.9749378616979893
0.3263233803456764
-0.559161358092274
0.1802160234495808
-0.33455820157852967
0.9613678735478366
0.932358094151025
-0.8246815910067087
,
0.4690965941341059
0.3794824333996887
-0.6345066003602544
0.019795506059182906
-0.4985412985583464
-0.38572224762251467
0.1846619381719741
-0.009162608603563958
-0.624461907503284
0.9855450921431826
0.04820487548765954
-0.9343458057446373
0.19541279189519709
0.16577084800030167
0.9371352947702466
-0.4410755327525815
0.8863370829926904
0.6473983158385535
-0.053906169886783956
-0.6958014812581218
0.36293964466914763
0.006414515235496134
0.8332274259450645
-0.014926607132250124
-0.2941999852404909
-0.6555688177703375
-0.7080548204251533
0.5606440923451171
-0.9904906870747807
0.4871979339159948
-0.5176442362038571
,
0.3524965610689524
-0.18710588174942086
0.10035307602055152
0.8728122281347216
-0.6347823034903811
0.17828687326268633
-0.24516676338396934
-0.3695232837538341
0.6486004925445192
0.3714577072808031
0.13180234407146477
-0.07297413198804185
-0.8727582196093815
0.8222895736594279
0.06979155490828833
-0.6087883782288498
-0.7942956495157323
0.6121622855986764
0.9809215953075101
-0.37437431179115915
-0.3262091801682824
0.04329050782218503
0.22805923912212714
-0.7671606001927267
0.9645404653963228
-0.933771614575693
-0.4496266278665608
-0.8808460294231025
0.6697544670390478
0.271896501353785
0.3089827931924378
,
-0.04866716528642707
0.32480324427072116
0.9717294503663974
0.4463821097577336
-0.36922913383552824
-0.009952112241531742
-0.5044660163440886
0.35119583475450405
0.3701345540234737
0.9003147392902394
0.2284595925650367
0.5563925388925163
0.5594011033171076
0.5417049678806017
0.15569337725676607
-0.8259385919751362
-0.024926257106833057
0.940278050695462
0.742041412300324
-0.735139923957648
0.08710049727640062
-0.38419602682792225
0.7729174783953663
-0.022557251348880675
0.23046409699401424
-0.2658791930374136
0.5132478853254063
0.22561579166608517
-0.7550221271126527
-0.7188471116011941
0.9594011886050406
,
-0.11252201910951805
0.7781478932109849
0.7582617709019093
0.3156236485255566
-0.8907367910314431
0.9459126435511539
0.8639692407337418
0.8586973184037661
-0.8734443250888673
-0.7254442102008732
-0.1217215542229935
-0.6745036437462927
0.22681740679418724
-0.08069633591210942
-0.9275957286193558
0.6674612644349057
-0.04660781029070642
0.06475230405476921
-0.6153505266084924
0.5453934829860453
-0.5387249432077306
0.06529893655019718
-0.2381035298970667
0.30954695422995104
0.05675103846228468
-0.5515297211137707
-0.8444522157516419
-0.6231931251967248
-0.6010491397555775
0.17793342040013185
-0.06127665978814689
,
-0.13236916930272083
-0.4579306329105808
-0.26603333302070403
0.72726916262464
-0.8017369720454156
-0.8936794887228491
-0.4810900142969708
0.9787444638867264
-0.11194028831005912
-0.7964390183468214
0.8306775914087828
0.5738860225382242
0.2874085649419568
-0.5748943420943126
-0.7616272870376891
0.6537694915283886
-0.8576759435639727
0.21826641189313972
0.5963474534622331
-0.6253565133234077
0.9563006512249723
-0.7594489016044819
0.07615850330271778
-0.02663647338262845
-0.03380350153347456
-0.04544795642891026
-0.33039407284050837
0.5625386877805839
0.22923669569329766
0.6098205730776998
-0.6216050619737148
,
-0.6152333935309837
-0.24669859829208993
-0.9716072925226609
-0.9939201171594166
-0.05245844334504227
-0.053635514847364
-0.8302530022708179
0.8439381084095408
-0.6158776429268427
-0.26681627667374086
-0.7040866080356808
0.8571284814203747
0.690667479009061
0.6033074894573539
0.7577856296796633
-0.96941623343517
-0.9400812575960331
0.6078488431499929
0.9353663128815375
0.40721927178214695
0.43558973417825164
-0.18074423616545288
-0.3828431814002492
-0.9336357060167471
0.6271797722512069
-0.8232250742426098
-0.7129828168106491
-0.19911447930718826
-0.13537159884994573
0.757949295617276
0.1585458367547854
,
0.5461080344830973
0.4666736151091433
0.5212316470794953
0.6065268929531208
0.7902240182311161
0.4998544560454325
0.3582886682658763
0.63035330376946
-0.8960433090562796
-0.2632928838616254
0.8738821249189187
0.40841741035429824
0.7166425739858924
-0.0029542176636407676
-0.25407744263706084
-0.3350695464096163
-0.3797572223183861
0.06897592412891333
0.764343194818045
0.5531395601704022
-0.9289535464777396
-0.2375554156342271
-0.36570184546317097
-0.9163892702211163
-0.44123341609012817
0.41597404642103597
0.5466788374724572
-0.2538166112619388
0.33679897556925154
0.15424274125712115
0.12504163691221915
,
0.8782147056868774
-0.6137617608273733
-0.4417046895781746
0.9019114885197433
0.6176891690913745
-0.6263036992747769
-0.9369691737477259
0.6971635782845658
0.7972242105034231
-0.421045719934264
-0.664696053557977
-0.5703577430434034
-0.966230126348089
0.028192413049734417
0.1800600258357316
0.7900218016130424
-0.5674727316072974
0.16567860297000064
0.12734965959690442
0.9197954539043492
-0.17876712335373798
0.23732357183500008
-0.30069764296119617
-0.19964572810531503
0.24027360698179376
-0.6882691875666466
0.6330013888143664
-0.5895704781119228
-0.45246278781548477
-0.6742402207333902
0.8006774805088284
,
-0.15144093398057304
0.3851061798719151
-0.10988451773518973
0.4718855147536596
0.6375723391598908
-0.4482744426773802
-0.27228196931875376
-0.3585600198468
-0.8200835236268442
0.8503379860695112
-0.45933147387070067
0.6647182790835232
-0.03420924679037826
0.8490676595268428
-0.11991333347028336
-0.8018398965142693
0.5341557001193311
0.7005444016827758
0.18289672618366543
-0.48095115218607193
-0.5813165430111291
-0.885635928604698
-0.529753124566231
-0.2828892715555068
-0.6455945365708227
0.9390737382904178
-0.536515714684525
-0.03584540990062779
-0.11136770767191663
0.3808378901510853
0.8234591346248417
,
-0.9342630148727085
-0.8377059644211406
-0.15619024354333258
-0.8934477206603147
0.8785465349374574
-0.8409477371996238
0.6238489137820802
0.5943080664887592
0.7884041731512674
-0.020732073944988424
0.21966203595113068
-0.3442391734487774
-0.56370455615428
0.7993759426136949
0.9132803105885142
0.5421401610002788
0.1373261760410116
0.11809984788544396
-0.5290393585609214
-0.42572968673731376
0.028866379039326373
-0.4247781897184126
0.25558310926394523
0.5858052774164664
0.8872136204015157
0.2245879565922501
-0.08777137582875098
-0.8164968771190532
-0.22070134257558657
-0.5518256659585759
0.8478464774052084
,
-0.13212054829585487
0.19790761011714533
0.8902805803214215
-0.7770815227581459
0.4216642733227389
-0.7805306256091072
0.7719092774646719
0.845887597794811
0.06906485436765483
-0.6574321900288534
-0.287797468232655
-0.5272979632199867
-0.11426919984929505
-0.8718218611676948
-0.19398447564116555
0.36379523740588593
-0.31883182844718433
0.5628858372259953
0.14025870584346262
-0.3791693824662326
-0.8489016138565972
-0.8899986560570357
0.10599781645788109
0.8377378358856253
0.48469751679371237
0.868826077663211
0.9682893781405384
0.9080065649725927
0.8232213182960415
-0.07315636035763817
-0.050671021910892566
,
0.42171432823997806
-0.0671570162680373
0.041227414274734246
-0.18813756208451235
-0.9407756665198973
-0.6705147669223489
0.12642173189469988
0.3370449705661402
0.5934424464935855
-0.3030895857921271
0.6507431094066077
0.43689301189569296
-0.301208383735093
-0.11345129280625285
0.026529322322098647
0.7258170007128545
-0.38371315112126175
-0.9278213498448618
0.37129336990929457
0.28010635372993326
-0.09078144633912305
-0.33939679415991136
0.5510698344795188
0.0608121165646621
-0.9592334689372672
0.4991827089655101
-0.618494107702102
-0.9827142124970388
-0.6741887473818002
-0.4300211291721748
-0.9847759714439581
,
-0.7854808556921671
-0.11509312904445793
0.8962563360571736
0.13472925193102517
-0.46473647289332143
0.7127086935755252
-0.288169595077064
0.3367469676352825
-0.5527637288038416
-0.31399435412660825
-0.9456889782207974
-0.7007907474405927
-0.853634943647559
0.39309994902303896
-0.09074655933397428
0.765827206706775
-0.027378409838127234
0.060283919131480755
-0.190473664624559
0.1469450228411846
-0.5855048932604652
-0.5114296655332549
-0.6876836335469816
-0.3586791825389818
0.24934630929352494
0.9629230464345461
0.22492660013338286
0.18466574206316935
-0.5777990605151662
-0.6454955461951097
-0.4121241009217982
,
-0.7839630283878474
-0.9243840120327707
0.2818228977195994
-0.5010713799413516
-0.6796138078149764
-0.1380467896593276
-0.8692197805598851
0.6126701161574188
-0.8957293100728245
-0.8833702851048278
-0.04644337395877337
0.8399514042348885
0.3417522560173269
-0.23812022776737646
-0.15839555319675563
0.19962250042018734
0.372484418198981
-0.06105335470622201
0.2546985377481414
0.023103299901822052
0.012862926028846014
0.2384025665902617
-0.08452541836981309
-0.1973307533810447
0.8316786278685471
-0.8182369348672293
0.4369982729296642
-0.14011136626968543
-0.4435930081275543
0.10020411531289009
-0.4023646413717281
,
0.6802861915149576
-0.4542839540829513
-0.06406652096112134
0.3619878570102215
0.3118919345446671
-0.15814815817025352
0.6602593728677604
0.10702375011434717
-0.49158843449073
-0.876830046373028
0.956711898154118
0.3116111121317643
0.46214957114725425
-0.9725778351112907
-0.3727186271274054
0.005135968024714996
0.901166162895527
0.8041655718765697
0.8008895944186769
0.6283918852328484
-0.9116024593469791
0.9858170530931591
0.38506771134057816
-0.34037167419630665
0.8354107363521714
-0.0902818343408624
-0.5056972508822859
-0.6464177883805634
-0.9574688134180482
-0.7244068933161278
-0.43038558950772643
,
-0.7796709017151304
-0.5690942777215495
-0.33809915434530197
-0.17720361199881926
0.5317492649330778
-0.8054835173764331
-0.04755172385609703
0.23349211148464952
0.03585698488116739
0.09114307626538759
-0.061681083500877275
0.8607338336397486
0.3330108703598719
0.12598908460921393
-0.9707438253064494
0.5024174160272944
-0.09325213473916129
0.4538198873601135
-0.01093407657129388
0.8280686786122026
0.6746075742248518
0.3409902715220355
0.8308363415865698
0.044331610869784745
-0.8913704632876589
-0.8440426604452472
0.6596363627525699
0.8819202595521604
0.4836480652914521
0.19326743301363516
0.09082859732888271
,
-0.7938358082602628
0.5747102280494898
0.8594973976229316
0.150380005843073
-0.05138907303954824
-0.7032329797688025
-0.7381261671178931
-0.9823350034473133
0.18397569960613755
0.18014971846758002
0.5383545987358457
-0.1359119911248461
-0.8151243868734106
0.31943122096452564
-0.5785829802263399
-0.8279265320923735
0.05988279058505981
-0.48521664134799397
0.49259836509882876
-0.629772766442111
-0.8125684772655228
0.6498440807763863
0.29044180783647666
0.41392431976518285
0.07680497071418087
0.08670229714331917
0.07073975532334627
0.029264193814438726
-0.4697557549224678
0.8043754348059879
0.3428157253739703
,
-0.2889025069546573
-0.022202242389068077
0.3400223812828716
0.5682088214635667
-0.6794632974073621
0.7627298176273992
0.213751356962703
-0.6533894184155931
-0.8864344016248937
0.7900424785758672
-0.5746807042211745
0.2911119942332633
0.3998837686475269
-0.5708710732727237
-0.12614623524665053
0.4104139678716392
0.6635944844979353
-0.12253761316039131
0.1259047012763424
-0.7487141128126208
-0.056278682654722426
-0.7484977399300619
-0.22788438166459155
0.3323822850987087
0.5506016511231988
0.6419682005842234
-0.1415816038730798
-0.5264103247734865
-0.20359926243825674
0.05077524771107018
-0.6881208323986647
,
-0.5177871245862431
-0.7250628332841706
-0.30583421727247323
-0.8466786700248553
-0.6036067771205337
0.49158884844109346
0.5125655930077939
-0.6632883249640114
0.9567301719916999
-0.8618430689461235
0.8695036241607949
-0.45811994323638217
-0.671028313636989
-0.8545938846707278
-0.5808552936834678
0.9721116289630297
-0.7825117353947213
0.8212583991782354
-0.06946521614061973
-0.746841426300891
-0.5400046788978106
0.8012722664467673
0.40601757650931536
0.9174178758109621
0.9564292358838522
-0.6316185579728048
0.311268021282356
-0.36054083210939003
0.37144922715102924
0.7383864620605436
-0.09701035295535188
,
-0.6444018200614343
-0.6086371222224993
0.33430758607839534
0.7466935261682476
-0.251329508010542
0.5662241548203094
-0.21192277662054268
0.29921406169544035
-0.840886621145079
-0.2536630322533374
-0.5907653730700898
0.15157345614174966
0.94473293997413
-0.0553867121784606
-0.7831287152508527
0.9871534372827798
-0.462241568144566
0.11586833585412785
-0.7009981160176479
-0.4104869994992773
0.007909789334893226
0.747164985300155
0.1722672332031391
0.3557673505932827
-0.18797956501804172
0.46803775102353784
0.15424058111171704
-0.3117455633963412
-0.39330029083894025
-0.08668122112701271
-0.7114178676296252
,
0.3381033397642133
-0.5487812026135326
0.9822815363041781
0.32903474633331653
0.35715139715288924
-0.41286892622315025
-0.6624407986114802
0.4298643943285427
-0.3710135640746417
-0.9310030895769553
-0.5271430667794824
0.7706825605429323
0.14553396620351397
0.9521729722270488
-0.9805628274260759
-0.8376930447628493
0.1562091890151298
-0.48736418833870926
0.11365671612936601
0.8190748748774183
-0.8888468898009569
0.9862135236284739
0.5409448009683517
0.9639724662629032
-0.07373772907722946
0.7386922192269966
0.19534694077190964
-0.2908682583195087
-0.47196006542764013
0.41153208203994035
0.906111168638293
,
*
__
0.7144814328677621
-0.17910896226103373
0.6078854869481739
0.1317095422070665
0.5686649560476059
-0.6854762599148287
-0.002383505002705137
-0.8441968384457716
-0.48224865122030186
0.477081563479991
0.28986200416736485
0.4631193627615851
0.19360904583027122
-0.48900964318129964
0.5480251374110247
0.7986616800874848
-0.61724615957729
-0.17977729075815443
-0.5728833178463482
0.04309818467833603
0.39716835404570366
-0.3662583340895634
0.6553268369484274
-0.5340424093217778
0.7986471239989982
0.3796940605176239
0.7259578767420363
0.2012784758551264
-0.7996264111758857
-0.6416471748618906
-0.8200014980731548
