0.5174396685670644
0.9180718044560039
-0.2903568846608715
-0.1879307879651097
0.4888442352087061
-0.44622405259905373
,
0.10440141753920898
0.4664115242416722
-0.35402475104647646
0.6621372986642164
0.6795972104778856
-0.888205447947729
,
0.16537381678682525
0.36244552774740857
-0.9298501198896767
0.507084965901162
-0.3308384651173346
0.7749504779874725
,
0.7627541133067637
-0.556104431426516
0.5595119485319184
-0.9195748790575204
0.6001177475087056
0.8347820743036274
,
-0.565105317005621
0.8709487045927329
-0.7814558018727318
0.33918775724714006
0.7481290971271468
-0.3507974840036858
,
1.1541896506558504
0.8395400626577527
0.11196889551852673
-1.433625116022807
0.46938953401063466
0.8457386970854119
,
-0.18159860839777806
-0.04782830227595536
-0.27914557118054373
-0.31473903766550987
0.48263154528264685
0.3132593284722247
,
0.4148714448782212
-0.18940222878480562
0.35763421517403815
0.6938366338158979
0.7766032974051507
0.2579912363901906
,
0.5865283644597032
-0.894473711151615
-0.18060355806868267
5.8247777977589834E-5
0.036289653155072044
-0.10141676655820753
,
-0.4045473265927488
-0.7849302449085305
0.5442249424152357
0.0590579922678445
-0.3467839313117571
-0.06984217769601408
,
*
0.8729517166092982
-0.17555438678794247
-0.5279812128549194
0.07777137163823353
-0.026224980631465812
0.2232832428994846
-0.9552666593868219
0.4100804758757473
-0.8591712028416322
-0.9739859212759004
-0.12718582368450648
,
0.26624392945954595
-0.5502292510803815
-0.7506902725452305
0.035282788907056384
0.5760079284785078
1.5273152764538311
0.08701998201665435
0.13150679958615513
-0.7379384814103173
0.6279020691509946
0.8696679494304587
,
-0.830966147102494
0.467662254095113
0.6382233716074626
0.7786181581006432
0.21356437355592878
1.3852110640867388
-0.3547877631976588
-0.28328289715416427
-0.4444689571160415
-0.6356857640563301
-0.5446974377710068
,
0.7143988178361657
0.6063395965793443
-0.556989757668343
-0.024628389949094553
-0.5146227849287185
0.6480922822788159
-0.9384499981829958
0.7330025373035828
-0.39961108662914374
-0.139198845248748
0.792633774581806
,
-0.2822419452362427
0.894430626692732
-0.5973152211416266
0.7493719994220737
0.7691390966814144
-0.25120835143158704
-0.8246943705430351
-0.8071605249970611
-0.932842939839161
0.7141743263923825
0.27564989541792584
,
-0.22409213886766122
-0.8045184240901029
-0.8708054869792906
-0.7544120958577679
-0.641277469725366
0.024930302053583174
-0.30105467678111664
-0.76759691432928
0.2949279108231268
0.4190934829419465
0.4083218282455934
,
0.23532841912554842
-0.19905520499108728
0.39043427529210917
-0.5567368659561439
0.24441893610942264
0.6412926087557136
0.9656577281216548
-0.1774217302279951
0.7166299467636849
0.6061593444666292
0.7062523145195772
,
-0.9613687459542276
0.7669791926381045
0.30107867937350186
0.6947990424908913
0.9195447372632759
0.048256662638830224
-0.04665429882124412
-0.08978202811965558
-0.9227837901177733
-0.8742694572500406
0.8357309095647154
,
-0.2244060437749461
-0.4662062417543069
-0.7309376284609879
0.3359064131589813
-0.270124978388478
-0.8238464754021406
-0.2701843763366363
0.2678982593786024
0.07799062392168506
0.9145288466429357
0.5986938373063639
,
0.1889176825397937
0.691196723369398
0.19032074488196715
0.5298302108665306
0.5233338685779247
-0.6968979602757231
0.7720510600955472
0.2320908407259608
0.4606734584846604
-0.00871484045969146
-0.46505940432166737
,
*
-0.4690690724203873
0.14888659719050198
-0.6971595237036
0.11553405062636662
-0.8281530663316292
-0.09401160047376632
0.05416374111441523
-0.9647183855848783
-0.0816825968258539
0.3163840170928455
-0.9506784933476955
,
-0.39747165096132686
0.4865174036283658
1.2046180069277441
-0.1734788024459344
-0.05459608165743065
-0.6180087866370743
0.012658354609303502
-0.3793172111182196
0.30255042529409903
0.8921873755538412
0.5300917287182301
,
0.2554719638578294
-0.39799252211683217
0.20656579099378625
0.06138668282321058
0.5763316503509126
0.8868840059162074
0.13218229403792997
0.23083849573806312
-0.3815132374605331
0.21002636448552656
-0.32476638798016855
,
0.14229419360734055
0.07697219737091439
0.050145709550222343
-0.7786277881355178
0.8067283945902561
-0.7804803149908869
-0.09335696482748193
-0.29618447673532633
0.22408978180999867
0.4100876654843426
-0.5678975601815732
,
-0.2394549270512946
0.731512491374789
-0.03616082498323038
-0.30665450266317174
-0.2583541822826836
-0.2313100846405692
0.7806650616208306
-0.8042586354457459
0.6499990260066285
-0.5210588701746734
0.8557626138049501
,
-0.3634707160150022
-0.8871632216122275
-0.4325368504271778
0.6600628779147819
0.5452276592766201
-0.31867843550820135
0.36225536760659455
0.48015450974440577
0.9064114133442072
0.8050277615484515
0.3112240702723268
,
-0.07318938965106066
0.7980495578946507
0.3942375556599525
1.109028666575493
-0.4292317980305304
0.9368317405735972
-0.5581291717824619
0.21720862333068744
0.48482246735676515
0.21124639339006288
-0.9145978292782055
,
-0.9311428275647703
1.156372062911702
1.0466480656740065
-0.3816662709229405
0.6024104199046662
0.8116353734518106
0.1696292528704714
0.7325088632262619
0.9214847928799426
0.34567739091415667
-0.7293051043860455
,
0.7327841882757048
-0.49045666697800777
0.7833537741579694
-0.6484345115539705
-0.7508941288837716
0.9036993668557924
0.021730343941755305
-0.262022718827236
0.6721145657243437
0.9865091465346348
0.29684070864233325
,
0.43385012445479115
1.1157198772678076
0.6215584513793252
0.4199926195609549
-0.05458777988631042
-0.9918236101613873
-0.13068464188246703
0.27989695488875754
-0.5311522569337682
0.804087799828835
0.8693896774728194
,
*
0.7590042965034502
1.0274760239965186
-0.3121603491191521
0.016809361937039895
0.7653806551170436
-0.6294274833533802
-0.7167331855369276
0.8500548454188184
0.2993688653068644
0.35057142239374456
0.2180334640308752
,
0.8808870077698427
-0.06796211433819961
0.3289130072188825
0.20235386317324258
-0.36518997641548856
-0.5940115593663692
0.01617753766190881
-0.25020880131340534
0.3563100613653917
-0.5381464912893255
0.16356166400077465
,
0.9756835842785202
-0.04830104465321925
-0.8533166910669606
0.030477456176194278
0.1984425207697249
0.26358886104552703
0.18612648162779372
-0.8020410362402783
0.10769649946336855
-0.9196506177049656
0.8395208116800845
,
-0.7597727608770644
-0.1866026466421059
-0.6055360885172179
0.7588678458281247
0.07687228677199322
-0.5441434747091299
0.3909500958941852
0.36992001501954525
-0.9914353331809068
-1.0050146763292964
-0.9906354696748207
,
-0.5779887075538548
0.08508150175541727
-0.9819202079356962
0.39304182705596485
0.5215993180801272
-0.620351919127974
0.9578550344021318
0.1300605957900007
-0.6799500098693169
-0.44539931066850813
-0.45431405315645157
,
0.4950812772935529
-0.22257620604287112
-0.7628196821879227
0.3939611040412955
0.6097130035961311
-0.9599361950576141
0.27297342596352286
0.9189111275392841
-0.7123888316794017
-0.005568264401459754
0.9063980351558818
,
0.3121664273615179
-0.7405476250792931
0.41348514716864404
-0.5052486853458471
-0.40848451258974733
0.5421009293463994
0.8749778461107348
0.5770808175918696
-0.8142520148541394
-0.6163240091326713
-0.09170558917981952
,
-0.6191025243374604
-0.3932853325778173
0.7002678033403769
0.39827062913777606
-0.2337577283768787
-0.8500326513606459
-0.8015741877128341
0.8123261079481315
-0.44671282734179873
-0.778818802428241
-0.3206244076196265
,
-0.5856814678088539
0.33716636924860666
-0.3971146939308435
-0.05122172343529203
-0.3275874176577509
-0.748652191566459
0.2158838313224067
0.624814202991221
-0.28200455154152265
0.7672072659994424
0.3981719422732033
,
-0.029914224276832165
1.0235762588870472
0.42898446233898235
-0.7204971042006297
-0.2903895553714823
-0.2276491221127212
0.6359133761601694
0.9879061043231283
0.42477685539939575
-0.2800283761012058
0.8952383261530072
,
*
__
-0.5238096896277499
0.7451556057089859
-0.18785970854883505
-0.485516520896861
-0.09718593016904585
-1.5226273009704108
0.35310131998516814
0.4814086257257499
-1.32990847839177
2.499077861210477
1.6344158499782262
