0.5492240777519392
-0.4517705339629696
0.970220326731366
0.22904160594706227
-0.3611067421662766
0.48069879336014254
,
-0.16570954331618998
-0.9409769890257618
0.42735261516726974
0.4231059923518003
-0.7719471962188664
0.6231479800551616
,
0.8016928432028401
0.40211555120543374
-0.8566325486505919
0.7976231687142197
-0.5181967710224682
-0.7045138282604659
,
0.30846012303105846
0.185692683957986
-0.7054715635074142
-0.24658902048179943
0.14400180821039132
0.502651147410105
,
-0.49492960609816256
-0.13825990476983607
0.952956817143223
0.7178952215900585
-0.29424657021920986
0.9833183546698459
,
0.3319794095716827
-0.030405190304093832
0.2484745839425362
0.7027356789508289
-0.44502120638201403
-0.8741467450233347
,
-0.2438769739124118
-0.9310868338475233
-0.4866085733579546
-0.32249991921266297
0.859453224773137
-0.2294344399079129
,
-0.3117867032843978
0.7476350908190743
0.9798316432686014
0.5149923172155251
-0.41515534688233546
0.9726112572413204
,
-0.285453468798357
-0.8098589737467292
0.07851516002790859
-0.9441873967476551
0.18008604095784775
0.39779665338343717
,
0.1994666001833269
0.07828189882338754
0.5306746024198334
0.1151542949865812
-0.9718412994506946
0.7272813235330524
,
*
-0.20799493917073486
-0.40912902561718084
0.5767127704363036
-0.9779908858981144
-0.8620327422913086
-0.16316696543240874
-0.19944297672278172
-0.6729533706113636
-0.21422820050153177
0.42039323165104237
0.21344779678237424
,
-0.9840062305748626
-0.2033400452940427
-0.1898671062919758
-0.026524826734716036
-0.5916410091091728
0.242470669477011
-0.13311425551667855
-0.2448523402888333
0.38306277084371354
0.4400314906982929
-0.15539700354572528
,
0.26262464765245885
-0.6044317190011304
0.23629307649636097
-0.34162698446383716
-0.21917261993707518
-0.4146569825911529
0.7266702486781366
0.10321745240852116
0.8428459981881391
0.04482017764212036
-0.845386901923787
,
-0.7681195684767563
-0.2296180383205499
0.45226318371066004
-0.7090382978526069
-0.8659513261580117
-0.36180144810802967
-0.1986766731947336
-0.9099796801572673
0.011870269470224154
-0.004035474625913777
-0.8709567302360477
,
-0.941138766945526
0.6267975820423148
-0.3623989747591117
0.887281874419895
-0.5620314923981292
-0.06503668888127526
-0.3912697564974611
0.8705616482788174
0.025405620967386227
0.07340845319097063
0.6925935410719968
,
0.43090195802773307
-0.6783143419738179
-0.3162122243951459
0.6743037274632072
-0.7901956590276692
-0.6080763061261549
-0.9402106422919865
-0.15228637798564515
-0.5522802974433978
0.01166740288012319
0.5643502464205008
,
0.4126921298822658
0.6065236695612773
-0.6209713953565171
-0.6582655606013187
0.6879174471142578
-0.9738810143111299
-0.08523442117210997
0.47838275838106903
0.39668690210911933
0.09572776736372791
-0.2947300624345772
,
-0.5603267339264066
0.7010767185823987
-0.49967659615668103
-0.6779552651370332
0.9197793961556312
-0.006525632195156849
0.0751519876147879
0.01777912993026701
0.9165903677733772
0.21635483888099677
0.9531691466923133
,
0.52088510255133
0.470098782031355
-0.24777358953946257
0.7407447082240867
0.18544983192248765
0.08458579230200876
0.850831127242066
-0.13861770332114656
-0.5956886754591874
0.7404297497377537
-0.9400167408512825
,
-0.733124946618699
0.9234382788328236
-0.7753946674741843
0.024730497963815254
-0.7699411169288256
-0.7957030974048676
-0.8834017399126871
0.7733165534352485
-0.6975593912079634
-0.5870920310234659
0.17908487464447287
,
*
0.539873021459557
-0.05787808392556249
-0.4792730725287515
-0.6085532894196306
0.11356358001626979
0.8557294876632782
-0.40247264619806494
-0.6386573824384406
0.7262457506631305
-0.18892777568786828
0.2209193185803271
,
-0.355622692242134
-0.4322863279086966
-0.8768700870628695
0.7810750306383283
-0.0351730676998407
-0.8351844892360326
0.9914814188403736
0.3913951147138648
-0.6848318583196721
0.05963355993275283
-0.6540974931284658
,
-0.9511790814347728
-0.4771132753498005
0.49579323450808443
-0.8707660698558436
0.9152830257761396
-0.06879107825292505
-0.8526115252009139
-0.740126572934037
0.3508259053240299
-0.4304102132792577
-0.6803042785692386
,
0.16381395944861657
-0.060202182183638944
0.4666142045528704
-0.49433600246990916
-0.7904691672321772
0.6391618050916885
0.5117610699279002
-0.3014850274840035
0.8965100936807675
0.6518895505248757
0.7004860971741103
,
-0.5508314357603937
0.49872714131506396
0.938129871052185
-0.5032299186277159
0.2709395004922258
0.3580738139524019
-0.28793646556164343
0.6010879216115339
-0.24189296049649175
-0.9602387346942587
-0.2668148232198517
,
-0.5957640200756681
-0.5303481636995488
-0.8365876916626975
0.8315647874300428
0.12354041250398203
-0.44632415506498146
-0.11417785872147748
-0.4412919041713875
-0.2977043179208273
-0.1188200343372313
0.7250973839209451
,
0.725804963256394
0.41216736383427005
0.5069605441776928
0.7036252757527387
-0.8290687626645477
0.3330705741528464
-0.7751136612624773
0.631956884066566
0.9752721741709669
-0.19953173102139934
-0.9020673942278268
,
0.7628538928831708
-0.8152337463332885
0.33899218753123733
-0.02386652859259208
-0.9832725918505643
0.0222345196107541
0.6043697010151994
-0.7771149205593593
0.5123444928569214
-0.4390835571600785
-0.5795616066528195
,
0.13644980532909157
-0.7674898889208001
-0.12137336270415613
-0.8762322222512412
-0.11589938086506096
-0.6878127440706931
-0.17628212109693295
-0.8796762368596551
0.15936208594820914
0.6583200631963594
0.6973049172935462
,
-0.1927310065601499
-0.773001499126864
-0.6077055292486127
-0.6064925173339761
0.8288108617037845
-0.4609571048627465
-0.04504992771300242
0.83464559158931
-0.9740363131500237
0.6830871516520516
0.6090804422101415
,
*
-0.08349081675582652
0.3218036297561186
-0.9295554715550557
-0.4146084068051296
0.548920691457487
0.39515410235285403
-0.5267510135274271
-0.9327550105681941
-0.02551732705871463
0.9605495256799083
-0.7122902427058637
,
0.932847363446442
-0.06210086087864614
0.10532520066794111
0.233737483321024
-0.8182883891190021
-0.9431596978392428
0.3973598635151191
0.0895485107716323
-0.17058250416465484
0.2855476911404735
-0.8180123847149847
,
-0.981702387882312
-0.7539464316420972
0.17915018758400672
-0.2319664155684655
-0.9407795805221112
0.8018353857880063
0.4315082436600624
0.1453716652688877
-0.5628147317262416
-0.9207854049078036
-0.970470871196869
,
-0.7260182660383329
0.4879133864723771
0.8841005258556452
0.2898682223749426
3.209616407237846E-4
-0.8106116198333738
0.8211259820198133
0.026431216809007334
0.21397429075972205
-0.39829763733146156
0.293492119439972
,
0.16116679119202587
0.0027256080543139284
-0.25340371867561307
0.44725580101785856
0.17060627861370256
0.21820138435271041
-0.9843737698573002
-0.20071123268740482
0.9740453340191455
-0.8400649296321722
0.4462968687623452
,
0.07199962654006552
0.0736440346651815
0.8655414638830456
0.9161614236835623
-0.8962124696337304
-0.9282916106598883
0.8886980190792967
0.7521249731162629
-0.38817896646465855
0.046760511469109006
-0.6188199966488399
,
0.95638411652758
-0.9449125741096668
-0.30471056710843575
0.7981031449064624
0.9390193757520142
0.8781546913604333
-0.3686853096231931
0.6095907573124543
0.41585913296563476
-0.9874573174755605
-0.2146986790091041
,
0.02909823669746265
-0.03869005941838723
-0.32961815732662203
-0.5445335620353242
-0.04159229637482414
-0.4018408082064354
-0.8148847351172053
-0.7621371438026239
-0.8992374163425046
-0.2390535015028521
-0.0607224484453337
,
0.7982655211264905
0.5113507908944225
-0.012335665630394147
0.26328636725986654
0.24910855387777814
-0.2920846004904425
-0.22533855636002506
0.5911681107565937
0.7453598677490119
-0.01073777490916826
-0.828825392059976
,
-0.8411940987482002
0.8751946835347003
0.4152719801240341
-0.10212324782228818
0.004390101540443105
-0.6824127861093231
-0.21330787193242656
-0.9684683114951377
0.19364805315040726
-0.5497785067584312
0.6936189810026134
,
*
0.656741285489001
-0.17974084316674077
-0.5429887416155553
0.7645929091305657
0.2226433715865801
-0.4783120068221849
0.983226040337284
0.24285746274841316
-0.1330209833944579
0.10240268920096679
-0.7481628251957997
,
0.9509483185327391
0.431671309272129
-0.8592308767416724
-0.804730485516064
-0.9517963690764398
-0.49771132717667244
0.3961200168770264
0.2836665490401442
0.9292168820650588
0.4380352755758225
-0.7067981537419332
,
0.26395168219973136
0.11372291582586318
-0.9346387949117047
-0.20348695793069926
0.4797085578735185
-0.9577207527811009
0.475742539080616
0.5820337934429914
0.9944792454442275
-0.6807274010558876
0.19785654326038715
,
-0.42749996910363497
0.35284285623727796
-0.8655774885762327
-0.09230012391150452
-0.3772639861632545
0.48689785883729386
-0.6541875796932551
-0.2053693281165194
0.42508776794551223
0.012304478808777459
0.021528840770145052
,
-0.28078366811010774
0.5504522041777387
0.9571489476542989
-0.8853109492023328
-0.6212403219062048
0.9487245486768006
0.8278070710262581
0.38543878997913955
-0.16104032617902467
-0.7968475574210712
-0.15994674595816982
,
0.6857753727357043
0.9952487781398054
0.3662968985528376
0.12992984855469045
-0.7124902935278192
-0.20508103022374558
-0.6989989197540979
-0.19231563161489104
0.06029546647148001
0.3812423275718827
-0.892032153851567
,
-0.1704591670790351
0.9967573152200087
-0.2867211097585827
0.4422560545627285
-0.16435434237759766
0.8330566705764169
0.6704651360165107
-0.6957941488877458
0.3391714776412201
-0.6721130083233138
-0.8319989485930828
,
0.2359909078068703
0.9501420197519848
0.1401410340642432
0.38995983326525796
-0.23668917059158276
-0.32101057101779373
-0.8154785201714746
-0.11107639672026212
-0.6079343079124927
0.7886628174773077
0.8465669344963986
,
0.006486674994926133
0.5037485815748051
0.15034724684089443
-0.49705336229793545
0.8361967387557339
-0.9117003598395628
-0.3929953619825234
0.4198415528239067
-0.21909055816843095
0.4116097018957934
-0.5403793027126429
,
0.2916625257750165
0.6488619530027138
0.43583826481535626
0.865700012786789
-0.5655762268409842
0.18796887003079868
0.09349939015362445
-0.32482073509774423
0.9621691986518793
0.9754017293801024
0.3622164050146528
,
*
__
0.02807328848981231
-0.8475531209675355
0.6593649461692019
0.49518212384329097
-0.09970191372655639
-0.35411997630977915
0.6939894354141509
0.7330616856406383
-0.29574105819055596
0.12701883033743488
0.9087355942320975
