-0.25385904774581025
0.9399793228377653
0.9694926499540075
-0.6435908822127725
-0.6361152551561242
0.3207094507675283
,
-0.7559715190943869
0.12946397221026396
-0.9839768311293073
-0.851364367324084
0.03677574796130867
0.1321064153597462
,
-0.9557918098843566
-0.23149907927644486
0.07581508416432614
0.13142495420255948
0.10893524170530022
-0.9684648613907689
,
0.4105037993833124
0.21208210337105826
-0.14341806685193914
-0.5473914770067071
-0.39620613365095747
-0.960555089333315
,
0.607968033115004
-0.8873372794091585
-0.9869418538086203
0.760828803612519
0.5507373221391283
-0.9078751438611976
,
0.2836917116908414
-0.6569718662401098
0.5606225474630848
-0.3588410016675365
0.4469684863619854
0.09570676195418604
,
-0.5180852207162449
0.520671046831017
1.4365819591533047E-4
0.6441195700324247
-0.19157780039135153
0.4931321018694481
,
-0.6041962878052686
0.9364484522644829
0.5364638037995968
0.04993388466482486
0.8221779511483585
-0.49006440983712163
,
-0.1457962974728428
0.3775520828267791
0.3301370518451723
-0.5586062106220484
0.6300954950485904
-0.20255846589015647
,
-0.40088577517456236
0.41698733758235407
-0.3190334642063841
0.7097364871281917
0.27639771011218195
0.6825748399325635
,
0.88053226452038
-0.326108800376965
0.18575445936971802
0.524804101984176
-0.3449060509356239
0.17954380053838936
,
-0.8746454752504523
-0.37003897894680127
-0.38156491788588864
0.14353669469530925
-0.19532017099565713
-0.3185257978939269
,
0.36568945034305755
0.45958724526823214
0.019111192114092068
-0.8666264595447006
0.11942064088535354
0.5347521456602395
,
0.7723976428339
-0.5186842650567567
-0.6860900745958178
-0.08302285708778394
-0.9255740042026053
-0.9458140374165147
,
0.6589131313760742
0.09608555646668049
0.8782190310035891
-0.3868149230267366
-0.9148927378234242
0.8557087562729295
,
0.41910050397897536
-0.8828766861768609
0.5537112913391169
-0.5886910143544346
0.42367971009216143
0.40154001828261077
,
-0.6444765046951185
0.23500793184115043
0.5803177057346878
0.47066763844288617
0.5730825115269078
0.4505832575794497
,
0.6492484685650958
0.8605705349541679
-0.8525803140597146
0.22714278055160728
0.9827417972409491
-0.3918126705327736
,
0.8211295454790876
-0.04695053348702394
0.33720395800572334
-9.52797825354808E-5
0.46545102896077206
-0.3581817278828068
,
0.033124940429651015
0.7201023420439205
-0.7456906210159915
-0.7456453570674866
0.0984917887235115
-0.21599295417517772
,
-0.8339672814486986
-0.3375337043225719
0.33030044359776545
-1.0344062998481613
0.7169171947238169
0.3362297055891994
,
0.5703072187665278
0.5655814747246026
0.9735776142096859
-0.24206082148722566
-0.7416244788639446
-0.18402628066982762
,
-0.9037198916801151
0.29343135410656673
0.8132833589541157
0.23148726590837113
-0.7235833875953221
0.29672362008343023
,
-0.0601319465884191
0.0400302078304795
-0.7384590607413082
0.8315561584200821
-0.08390257847978266
0.963284844060939
,
0.0541486613542264
0.8089875568756923
-0.41233213825909565
0.31985191710288907
0.16884396128065116
0.07284373897703622
,
*
__
-0.51617485911464
-0.18429175838657458
-0.7435445793202389
-0.8376637644077262
-0.9562189013648152
0.11733116541198463
-0.614997765044394
0.3159996161779078
-0.9477840058153513
0.9154399955060224
-0.4616686779265706
0.3397015830308515
-0.27924539629003947
-0.008522320917665346
0.19172245681055397
0.2488238776676596
0.6846964265363067
0.519491798579801
0.41549257446365956
-0.7559709942178754
-0.6568577233741193
0.871456463714532
1.0115954021183438
-0.6995372198950236
0.9470021354292752
0.03977386489627281
